{"id": "dfe9bfde-a38c-4cb8-95f0-08179ef647aa", "n_players": 15, "T": 3, "K": 6, "L": 11, "U": 12, "gamma": 0.9, "lambda_win": 0.6, "beta": 0.25, "churn_penalty": 0.01, "G": [44, 44, 44], "C": [1556161.4667015013, 1602846.3107025463, 1650931.7000236227], "R_base": [22725395.32714837, 23179903.23369134, 23643501.298365165], "rho": [550126.0134174073, 555627.2735515813, 561183.5462870972], "Q_opp": [-0.7462297423043233, 0.034474143222578545, 0.08838012106725694], "w": [-0.35949753822205066, 0.15317986797508545, 0.20694482163525196, 0.419268047124228, 0.5006466425615567, 0.6148483813594247], "abilities": [[[1.4643560557663473, -0.6452521147449809, -0.6752165886631403, -0.012182615127425524, -0.36611911870439967, 0.9365451245126531], [1.0355099139192439, -1.6664505279114001, -1.198697321469665, 1.7703251966469136, -0.252693710848166, -0.4133196066628636], [-1.0059650431461948, 1.1922745065028397, 0.1154448958699634, 0.22619730295876792, 0.709661337101172, 2.0809993507216253], [-0.9891071712755191, 0.7885869642716525, -1.0935420371456581, -1.125017143721448, 0.04528596549008243, -1.1875254647939244], [0.8865685932346642, -0.07411348635064803, 0.251028935825573, -1.0816350979124718, 0.14640752523994513, -1.6301058948300502], [0.06592789456278832, -1.6360710652703516, 1.3867544330446486, 1.5751807970169134, -0.009120786064084733, -0.480229219078612], [-0.41515493532128306, 0.7937853418810473, 0.21383064189015757, 0.6955101902834158, -1.5472164771638566, -0.8299424944310315], [-0.10915822164628328, -0.6668272482743756, -0.6362580546634865, -0.32961366526136815, 0.5901918277416411, -0.3003060549413214], [0.9045697672638157, 0.921802497302985, 0.9769086177935978, -0.2863581185266866, -0.15545995939253696, -0.8890038976309076], [0.8019003023738104, 1.3194038539471709, 1.8824016533983257, 1.0116701222577047, -0.8410593604544313, -0.2413944482731078], [0.4385394546654259, -0.9824861404479958, -1.009280517724138, 0.12965226300471552, -0.8402719009425963, -0.21886884626738756], [-0.7295919824261446, -0.16012901646305136, 1.0511562847745717, 0.37800742549799626, -0.699370809006327, -0.10341615709229617], [-1.9221246770332279, 0.5461363586819953, -0.8929486506709038, -2.0699236704393664, 2.301532838987417, 0.8959135682838646], [0.9799983328234195, 1.1569776440703352, 0.8075962852469664, -0.869220059523923, 1.8532746659221928, 1.1702545286248403], [-1.4062682837608627, -0.8876375671952227, -1.179178577506812, -0.012592927153737252, -0.9350420379060519, 1.2103995118585178]], [[1.2772404768702357, -0.8393307973638687, -0.8544296680836873, 0.3646382200457851, -0.11086232835370577, 1.1107271694029426], [1.4003843275430008, -1.232364823995847, -1.2992807450000436, 1.3053309565220508, -0.5253259259792183, -0.36275959155919313], [-1.1108670002785443, 1.0802218088793498, 0.27962358922043734, -0.2763197605517109, 0.9260866007225766, 1.9638723332090675], [-0.4446876523956553, 0.5960111325931546, -0.7852183474889651, -0.8916921202447365, 0.16727609656225326, -1.1886754680729035], [1.1428612314977236, 0.2719744451225128, 0.4827793398565514, -0.981962888753903, -0.46221355784603324, -1.2743528750535935], [0.01392401749460605, -1.8895382332405886, 1.5033074214302484, 1.722054515810269, 0.5157122509128822, -0.089458533788104], [-0.5245784548124216, 1.1368912895267593, -0.5489304011369419, 0.9461352668110258, -1.6246403192538368, -0.8914365989807409], [-0.46977634423124653, -0.8032719922437092, -0.23798687363284565, 0.7227716782061623, 0.37736791303896666, -0.753348395035059], [0.252142798445523, 1.1163838680699034, 0.5956208200595117, -0.6848603986780383, -0.046853093850677444, -1.0862261771273052], [1.3614709611404365, 1.0906065339256652, 0.826205830917713, 1.0546606526447653, -0.9604712181029652, 0.8567867389124829], [0.5244071230008912, -0.8270025619371018, -0.10339670996578806, -0.5552315507956619, -0.842944156086864, -0.7677743162948278], [-0.5327584465770427, -0.6311968009576104, 2.084572135799041, -0.3009052586017803, -0.5431901596036457, 0.30430360163171405], [-2.167725144511844, 0.5142490196710261, -1.6853608215278582, -2.2024512564357424, 2.2822736054185295, 0.8516982397043168], [0.24639137375986322, 1.1577594445960677, 0.49132101831623076, -0.32173670024212225, 1.6620780803406607, 1.4279606724433218], [-0.9684292669455253, -0.7413923326457132, -0.748826588763604, 0.09956864426363794, -0.8142937879189233, -0.10131679939211817]], [[1.4884124258085, -0.5193081228579812, -1.0031246154601852, 0.09175788962174011, -0.3342023274115146, 1.5695776919193827], [0.41856483486271734, -1.5837122683596323, -1.2476142331768765, 0.6027341360040956, -0.5414573844703181, -1.0863987780275233], [-1.9209026046106017, 0.5048148786098432, 0.04241535835161493, -0.7344715582401433, 0.4660177728318801, 1.844009994059642], [-0.4857361158319923, 0.9630148086940646, -0.4330860146545708, -1.4702462521033293, 0.39539312268003896, -0.33812491871594275], [1.1863503391376848, -0.18600670011132212, -0.10098464875807389, -0.20699623684514415, -0.2299076164366592, -0.6960398521660903], [0.19796794392203296, -1.7523887652966375, 1.3417763834597722, 2.2044708534259083, 0.30494393827442895, -0.647307566784617], [-1.0765942675183542, 1.4777720429696586, -0.6522265619907955, 1.3922282330783733, -1.9767751355476777, -1.3031317596334442], [-0.1340996307968249, -0.33376778859350226, -0.6951511305430641, -0.01299616536548823, 0.5073355155584776, -0.18879049608112478], [1.2107440284936548, 0.9731532500885152, 0.9688616440929335, -0.298808234788504, -0.0840556275637899, -1.5630284716644103], [0.7576703104219981, 1.0356462840402312, 1.0932416089511643, 0.8737173884975388, -0.5777160227271667, 0.7335164732713034], [0.6924499133565518, -0.9524061024227103, -0.31665186972417475, -0.23673452484341093, -0.8013672156088951, -0.1430146344383128], [-0.6813622853030012, 0.22548644554118719, 2.0357365801730096, 0.3616033254204081, -0.5887668655748234, 0.2919715403745943], [-1.593618192552108, 0.3487753879874497, -0.9647445848212188, -1.7308703577411122, 2.3898193571780393, 0.06182055999098737], [0.48720938626542204, 1.0219363482274577, 1.018677791595514, -1.0101021136979933, 1.6069598413449908, 1.4537667609646874], [-0.5470560856556791, -1.223009698516622, -1.0871257074950489, 0.1747136175770608, -0.5362213525270111, 0.011173456930868136]]], "salaries": [[236325.75215474927, 70281.17656035116, 260000.0, 30000.0, 30000.0, 110603.24610290249, 88018.96758761292, 62047.419577999855, 64159.06309368537, 150860.0885595203, 93178.94260950133, 100048.05301144489, 194730.1888680142, 260000.0, 209258.24682931288], [225154.3781748039, 30000.0, 260000.0, 30000.0, 30000.0, 150570.65559879146, 43139.48576788712, 30000.0, 56127.27430674991, 260000.0, 30000.0, 177854.60659709098, 163058.21749635035, 260000.0, 65762.2849632946], [260000.0, 30000.0, 260000.0, 50579.69738930714, 81683.37735667881, 71784.71730036754, 30000.0, 78860.49833705486, 30000.0, 236791.9303139355, 94805.39714139598, 171576.80245075753, 93178.50451403603, 260000.0, 97245.80057911256]], "x_prev_mask": 24570}
{"id": "f33d380d-7e8b-4767-a9a4-1b5f28ea5316", "n_players": 15, "T": 3, "K": 6, "L": 11, "U": 12, "gamma": 0.9, "lambda_win": 0.6, "beta": 0.25, "churn_penalty": 0.01, "G": [44, 44, 44], "C": [1448935.6641936833, 1492403.7341194937, 1537175.8461430785], "R_base": [17385502.049479596, 17733212.09046919, 18087876.332278572], "rho": [607717.0404262134, 613794.2108304756, 619932.1529387803], "Q_opp": [-0.1213572837865733, 0.6708760063439377, -0.320072744578664], "w": [0.15120302109225073, -0.27627894291256594, -0.24070714532255322, 0.4137331808460785, 0.7360204349531165, 0.3605085797694792], "abilities": [[[-0.8744900804568603, -1.1589289888774523, 0.9500564451916893, 1.4817607362265328, -0.8469306538877359, 0.8391013715364795], [-0.3795341664616093, -0.7700121792128111, 0.1740722431236, -0.0631286104760746, 0.7964827212786111, 1.2139646577748158], [0.9474219238852859, 1.7502889703862081, 0.7458720356691383, 1.369856088324661, -2.0920170058621075, -0.08620694515769331], [-1.5163430385630876, -1.5000249541498596, 0.5943851117016342, -1.40360103804377, 0.219241165903959, -2.256158742915213], [-0.6588572440510309, -0.3105562087376315, -1.6201638478302332, -1.3420568400403965, 0.01370846801290117, -0.37662403252919796], [-0.9316196026643098, 1.6015303107882088, 0.21876137710032292, 0.08099324062414866, 1.8719199839673732, -0.598103417347179], [0.672970660162135, 0.7550211340808243, -2.2527498795959406, -0.3813055141668413, 1.0252507467975047, 0.8647539337030953], [1.490671835604029, 0.18338046440235228, 1.4281022813523656, -0.6991236358174834, 1.284573856909431, -0.5274705351149215], [1.2144630371726595, 0.7190631990122806, 0.026809272976188552, -0.17891133728176242, -0.6294313427845917, 0.395928821766616], [-1.0054962736395088, -0.18027120542412495, 0.03885497077784741, 1.5103115149908135, -1.173470567156355, 0.5000243447386566], [-0.14875895378779122, -0.7281101570703571, 1.3055255022272458, -1.465080686336348, -0.11301231502525597, 0.5781277503241469], [0.374179928731298, 0.9568020107520038, -0.41780386388922613, 0.837466364287312, -0.7581038157798564, -1.1090056802462327], [1.8416986404835949, -1.5640165885179322, 0.40721347501859945, 0.9987693763792946, 0.41081496190261313, 0.23648486189372062], [-0.9319174383827181, 0.20604194894127492, -0.6494303872863877, -0.5670519858011969, 0.48978468428894734, 1.5977242524236386], [-0.09438922803208669, 0.039792243627015784, -0.9495047365368442, -0.17889767286888927, -0.49881088856543815, -1.2725406408507345]], [[-0.5110594332670882, -1.330112416706682, 0.8577562549212225, 1.199995964856259, -0.715220153305822, -0.41240568817755785], [-0.4186462811455785, -0.8195763297896992, 0.560421024767393, -0.6418106403887354, -0.09522506071400598, 1.5314907047430388], [0.5865455222447002, 1.525042339198828, 0.6101389587515043, 1.3813777450892248, -2.2528749886331787, -0.055878059608376364], [-1.5864994239426535, -1.4633238013204766, 1.11120558941619, -1.00478746947816, 0.2897442232618282, -1.7652541744744397], [-0.6785727951814995, -0.3613029060947706, -1.994937641363832, -1.2585318336890812, 0.027870933730814288, 1.1614941868205386], [-1.0151481764369343, 1.7282701418792297, -0.13422042057651792, 0.41210537144053605, 1.4862801749533177, -1.0277859219435848], [0.8270924863316973, 0.5754654379713136, -2.18856267394863, 0.014141301246227495, 1.235937063889834, 0.776466721109115], [1.889629447747444, 0.39216532724935643, 1.0114627457870153, -0.3856187515619774, 1.783752856777166, -0.4735590903748324], [0.8722434893420504, 1.051140418826192, 0.16676361770426243, -0.13781018805905965, -0.3012356637870134, -0.19820550321148203], [-0.8055349853696332, 0.03380163867201618, 0.1816054903259413, 1.2631050743174521, -1.0609587768676711, 0.8211263490898543], [-0.11776644566258067, -0.3121219680567596, 0.8195468703602562, -1.7447131154206192, 0.21683238174626146, 0.8109739332627014], [1.0323778166904516, 0.9105371955484385, 0.3396871794559923, 1.5640122880820042, -0.6514908093144572, 0.302577119134706], [1.435271884046352, -1.5434895177916834, 0.37437925631861124, 0.512386732521249, -0.12665040445170622, 0.5758721918530542], [-1.120648505403225, -0.18956212604281597, -1.0492614168684402, -0.9554110113190108, 0.6662890802170119, 0.035628448313042245], [-0.38928459999350323, -0.19693343354248705, -0.6659848350509682, -0.21844146763630903, -0.5030508575023781, -2.082541216535778]], [[-0.3490926521468837, -1.226010286853173, 1.0146038354706945, 1.015127524166523, -1.025480383391057, -1.0798465238803339], [-0.12261015124796952, -0.8134223011564775, 0.03343229639653778, -0.10970850802376063, 0.22421902925581855, 0.8473171361018663], [0.015710741157257315, 1.4351235868174528, 0.6645872614485065, 1.4626329843241863, -1.447808868187622, 0.22679154282470806], [-1.3989839117638359, -1.5325238096361304, 0.8048308089012649, -0.26903668571147016, 0.21563410522508933, -1.205156950155107], [-0.6152805883767105, -0.3112521584259792, -1.6738931376366826, -1.1208751894317142, 0.5125201317710002, 1.030062440190797], [-1.1384535037872854, 1.6086394544664278, 0.6327108474879878, -0.6138948818506782, 1.532887540738493, -0.06462251573104383], [1.2830659702906733, 0.3970546054705196, -2.077252638152998, -0.2615203523834022, 1.231894274512585, 0.49415169042910567], [1.6720520800119207, 0.3410236086105569, 0.9201554590459586, -1.1155114568600135, 1.7845767234047285, 0.45006577658676694], [0.761289713936142, 0.9118446263674659, 0.19049886056663864, -0.4725951854674634, -1.1694532655261938, -0.036777014797821056], [-0.9731979906711932, -0.08827703394274487, -0.25583786820141197, 1.796792544348928, -1.4729688857575725, -0.48551413508605523], [-0.15399798011177945, -0.4106895147135731, 1.0398437603042265, -1.283254747631432, 0.47648033177852733, 0.4226102815121784], [1.082561072465834, 1.3343530919560433, -0.10748067157450084, 1.3997503546398158, -0.5124431712553047, -0.8371752028721059], [1.6103356120579817, -1.6315077790616033, 0.966281660473113, 0.9147888171869022, -0.03213092374830123, 1.8101240790381055], [-1.0282626309582312, -0.10243435550498563, -1.2650129657995755, -0.7144176418241188, 0.26665837566471595, 0.7092221427689286], [-0.6451357808559195, 0.08807826560620062, -0.8874675087297602, -0.6282775754823023, -0.584585014484907, -2.2812527469299897]]], "salaries": [[214574.29872625627, 231996.36669859232, 154345.44576076162, 30000.0, 30000.0, 143351.46977610936, 135180.3354012783, 151380.66696879527, 185203.17269119693, 129559.12691758489, 183166.44623214274, 60177.0809514484, 218030.426545929, 260000.0, 30000.0], [102185.44677449761, 246679.6383342132, 161128.5616686808, 30000.0, 167092.12711533322, 95394.05041463421, 260000.0, 192681.9666124885, 133588.79091408514, 179978.48384420003, 217330.60498965994, 250913.32512132783, 174882.03671457327, 90232.77075096844, 30000.0], [30000.0, 199973.54324864567, 140151.60712695602, 30000.0, 249967.02411575112, 162825.95371683253, 243436.0993214299, 232611.89840951012, 152642.53582012528, 69638.57797216182, 164687.46559414332, 59586.62152429279, 260000.0, 122667.70260743558, 30000.0]], "x_prev_mask": 20477}
{"id": "766bb15d-2250-4321-8317-67362adfbe80", "n_players": 15, "T": 3, "K": 6, "L": 11, "U": 12, "gamma": 0.9, "lambda_win": 0.6, "beta": 0.25, "churn_penalty": 0.01, "G": [44, 44, 44], "C": [1601120.1840148782, 1649153.7895353246, 1698628.4032213842], "R_base": [20016849.33100998, 20417186.31763018, 20825530.04398278], "rho": [609877.196232197, 615975.9681945189, 622135.7278764641], "Q_opp": [-0.771726338283224, -1.474977632680037, 0.9085379132546411], "w": [0.37070826850146227, -0.3963205864894653, -0.20407782995416407, 0.300934524273908, -0.6920027089220518, 0.30729183811388544], "abilities": [[[-0.6250614495381829, -1.016539459705358, -0.1925250821696339, -1.848770311863879, -1.9001983634509383, 1.9273637606478053], [0.6795781631832186, -0.10820726549801447, -0.3586226889033755, -2.0252040592834923, 0.7200142539933497, -1.4183159821231404], [1.4965768414205516, -1.9152621501960743, 0.8415056577388141, 0.8462043166776636, 0.6053681449776288, -0.906700990937428], [0.6007052423291681, 0.1272342336908892, 2.2569678473917913, -0.04038551483634743, 0.5073399252323322, -0.25267483328926055], [-0.39924702148406194, 0.8717742604283819, -1.6096750382450704, 0.6753440771855806, -1.5664815053886931, -0.21256423636130573], [-0.050811695042721844, 0.39058023557408067, 0.40181168735854317, -0.038509858315124046, -0.19124559760610194, -1.9407683178602428], [0.4808661475950443, 0.1664169311411255, -0.45926671474293146, -1.188021977885648, 0.03532378973963179, -0.3153624299105552], [0.9784737506019313, 0.6744193639753931, -0.08834969451844306, 1.724104347792065, -1.3187684339108219, -0.43325108859933253], [0.44408699878280916, -0.054384866228981164, 0.000539786936858255, 0.047140320221926456, 1.520533442847648, -0.5229805400273804], [0.3665464297392196, 0.9552164745396338, -1.5942687114023957, 0.3095584929543741, -1.3250137101487058, 0.7734404627822374], [-0.4625696055946796, 1.589799219154961, 1.3654921340101782, -0.1415729337574192, 0.8294133868000533, 0.5723216777288814], [0.032505253114405955, 0.013002077234850848, -0.21945934104717357, 0.3110024455992147, 0.4015290787498083, 1.300330150416849], [-1.756977761845214, 0.9223525613339167, -1.1297950061791402, 0.7573872667536242, 0.5062386864437424, -0.006386704375409337], [0.6840789631068416, -2.0694175531583046, 0.28897140435962687, -0.381832685464092, 0.8632782514702432, 1.1468441334209478], [-2.468750256368329, -0.5469840622865004, 0.4966737594123536, 0.993556074221553, 0.3126686502508238, 0.2887049384873336]], [[-1.494358226924365, -0.8957193217574945, -0.5972846186237254, -2.097761236180305, -1.7462819362247333, 1.5112680493134476], [1.3354583518828969, -0.8313275030958487, -0.07303278523133995, -1.6393301623213745, 1.4226465151910248, -1.8419619186763718], [1.6551499337778914, -2.047190863895403, 1.845301838271727, 0.8266166012750916, 0.7750070907122573, -1.406773264952684], [0.6842156967030388, 0.7681732974665311, 0.6829892343621907, 0.559775250463205, 0.6044637911480728, -0.5694512646845153], [0.11081791133072269, 1.210136302435067, -2.44132518009977, 0.5636460724630531, -1.6461930906430031, -0.43942973468362956], [0.30484440967847637, 0.7685396376935224, 1.075748562670851, 0.1415944070084987, 0.7781658819965456, -1.3486207230355727], [0.48894443791008857, 0.24078419713915084, 0.18094183259705474, -0.9842738807047473, -0.9134774689167809, -0.023957682874823638], [0.7898559912779735, -0.18607766642407642, 0.17378799583249246, 1.2700632146527526, -0.4975175965765669, 0.8135964765381078], [-0.14769668816893353, -0.44368302571953944, -0.04962495923312126, 0.22496744234856986, 1.506624742072342, 0.2333826138031818], [0.5342376515653366, 0.9088598959742823, -1.5874408414950798, 0.9450151682322474, -1.2787683970383417, 0.642840659383956], [-0.5450112729110255, 1.1699316758853184, 0.7978788765192852, -0.2835181508026972, -0.07986333417604297, 0.22725680685656166], [-0.42097701675165583, 0.3174538769927838, -0.07470989988244015, -0.5419931715466276, 0.154613761128945, 0.8319537775360262], [-1.3085333031923858, 0.7168611485380817, 0.13620724425006206, 0.6511015438850618, 0.5844812591988265, 0.23736380651660108], [0.08816803053568521, -1.8808585415441954, -0.48219588116807405, -0.8638315337513806, 0.5068378782319628, 1.6699892449824354], [-2.075115906713744, 0.1841168903118195, 0.41275858122988635, 1.2279284349786521, -0.17073909610450816, -0.5374568460227203]], [[-1.4245955732999125, -0.754745655799447, -0.816808453078198, -1.8185867810651488, -2.009913899462804, 1.6024821906944449], [0.7163116565623804, -0.16570359902888238, -0.44587962564086997, -2.2817002476602193, 1.3910957787174403, -1.0583792625683428], [1.643155285992261, -1.5911304876066905, 1.276095884512853, 0.48838454757087946, 0.5014734057845659, -1.5487294468715833], [0.9375772293152277, 0.8040167962123962, 1.848799298234536, 0.6263526947516297, 0.20576599205631899, -1.1246267837893993], [0.21381680631779929, 1.7839849913195498, -1.8721573699275875, 0.9988262733123262, -1.2204688719069146, -0.349103423525445], [-0.02242968224024651, 1.3487468247628513, 0.6528139162004472, 0.1927673726715913, 0.48762355692385434, -0.8177009393995159], [0.17229689439227483, -0.08701291085210285, 0.05768801016675408, -0.6709356375982796, -0.4977800520519798, -0.5492645179014048], [1.04035194268128, -0.6825812233465822, -0.7842311296063097, 1.313966184853525, -1.1946435655063425, -0.48333999778025083], [0.2626005437022295, -0.3909557372762938, 0.39708867763196176, 0.2224648161777485, 0.7281102569771385, -0.00540736204912453], [1.051733722364293, 0.8728677331680201, -1.1509092126948737, 0.7876601864526014, -1.474372687590852, 0.8002602289932796], [-1.1562905115767925, 0.7148707123272722, 1.5658345303922687, -0.3711698711331954, 0.2760308336380583, 0.7190501253202704], [-0.3399928229344585, -0.1872981994849988, -0.24844319929585815, -0.01490049141644073, 0.5874174851069007, 0.9812171521480971], [-1.5521278054295318, 0.39995328153201726, -0.7079322674967327, 0.7374635266857834, 0.4838866998580241, -0.33607401084281757], [0.0930468091603413, -2.0316526467347207, 0.20075987432312783, -0.9022776630874887, 1.3491507644954341, 2.016443741735376], [-1.635454495007145, -0.03335987919238819, 0.02728106627848119, 0.6916850894846875, 0.38662430296115663, 0.15317230583641603]]], "salaries": [[250095.60762368, 30000.0, 93521.87791764014, 185320.16171436445, 117468.0614330851, 30000.0, 73010.40227003646, 100031.96767620709, 131227.12930703268, 147746.93335805248, 237606.09844013932, 260000.0, 117318.59532125859, 217589.31452635105, 163031.75361416108], [193674.78516401935, 30000.0, 43393.25734381558, 131063.96838192552, 30000.0, 109649.64374521053, 114535.9752989238, 242361.18098445106, 159420.73573767277, 195354.24298819192, 164984.80051083452, 185340.28644009534, 190781.54204319068, 260000.0, 85104.86796538552], [186381.9354791333, 30000.0, 30000.0, 80840.06858931825, 74375.63886196722, 55097.05218426222, 66728.29202690837, 30000.0, 194916.49357013745, 217179.8424980477, 225105.9674914173, 228749.50453495668, 101534.06358492377, 260000.0, 135141.68950926515]], "x_prev_mask": 29694}
{"id": "3e88087e-da68-4739-b960-d45480fe8416", "n_players": 15, "T": 3, "K": 6, "L": 11, "U": 12, "gamma": 0.9, "lambda_win": 0.6, "beta": 0.25, "churn_penalty": 0.01, "G": [44, 44, 44], "C": [1651779.3904788417, 1701332.772193207, 1752372.755359003], "R_base": [18757825.873900898, 19132982.391378917, 19515642.039206494], "rho": [616841.8894197358, 623010.3083139331, 629240.4113970725], "Q_opp": [-0.637029538965298, 0.6160468334169248, -0.3303888890801594], "w": [-0.00467242982053399, -0.5716250203813509, -0.28974515863524203, -0.016768922586962044, 0.7321750172818021, 0.2300202035967474], "abilities": [[[-0.20369410245892716, -0.8136347307663775, -0.21410762545962367, -0.26681243590394926, -0.0015512986432477988, 0.29546967841081717], [0.9805128783218646, 0.7818306492431477, -0.3438181226850421, 0.41197708146424233, -1.4223008824067047, -0.7945621942464756], [-0.902419815470999, -0.7583176292717811, -0.8924381143738501, -1.173980531147884, 0.5816520426607302, -0.48424791393290917], [-0.1971616298477428, -0.039750282865169254, -0.38558026653761207, -0.39088065553943513, 1.8458401290963655, 1.8015803598750588], [1.0343524182095647, -0.34330146681601126, 2.336769479913133, 1.0132377164028759, 0.5792309262658821, 0.9945268103787487], [0.49544676990609526, 0.1513355007204915, 0.1757405463642499, 1.905416872565114, -0.332899404382741, -1.6922460161480843], [0.5630107830379846, -0.07598927906399629, -0.014390068949557773, -0.05987274082469461, -0.8005996717875719, -0.28078064131965036], [0.1278626183241696, -1.510193897930983, 1.4168939280793837, -0.8135647316519357, 0.2365771837936723, 0.4243523081368149], [-1.2018406403960307, 1.4631610427317554, 0.645355950239061, -0.8852268856440145, -1.5853231966950192, -1.3412507073834523], [0.536797351373173, -0.5760501901405813, -0.08906773109607273, 0.39927672108325013, 0.3964869426930119, -1.0079791124489408], [-0.8245945977297843, -0.5580147108070043, -2.0374647167021442, -0.8192438983565491, -0.7450190177200208, 0.551807555029311], [2.4361406077076713, 1.9224606249358285, 0.42699532798861645, -0.8529734324265031, 1.3547533227176967, -0.14257507037812037], [-1.2077258333590024, -1.0949759524132596, -1.2666454917821364, 2.1133388191804285, 0.12720316455620118, -0.741068029518281], [-1.236615652807236, -0.2719456476007765, 0.1252601108040615, 0.39110701233098094, -1.33848366520484, 1.4080263382822753], [-0.40007115481080063, 1.723385970044717, 0.11649679419753316, -0.9717989115319265, 1.1044334250565844, 1.008946635262889]], [[-0.153304975165445, -0.6269943227765243, 0.04722339507596438, -0.34565117381227467, -0.38211779858620737, 1.3500487159572967], [1.253980162360738, 0.30680496206401575, -0.6555510705369881, 0.383711246121088, -1.4961850241562729, 0.10727187071298364], [-0.7141160241538088, -1.1949552812653927, -1.1409116320873562, -0.8986146409569796, -0.041056796583644396, -0.042395869695049236], [-0.048290327417470504, -0.07193254305751998, -0.05075816142076167, -0.40031667294391154, 1.3910599210943626, 1.6783457440769052], [0.9323621504077365, 0.27629098776874, 2.0211757373055357, 0.8497754025318867, 1.181293809182053, 0.4204712085759356], [1.0935355759939458, 0.005978105338246252, -0.09920501717636082, 2.2897841740992324, -0.21390737401330415, -2.1059867940981274], [0.27222088915816683, -0.24381889032781678, 0.4631048205617311, -0.45980752468425246, -0.2532967749632361, -0.9391666581336452], [-0.2734272414746672, -1.5278939608119109, 1.4795042175666873, -0.9949207013552849, 0.2819373535999441, -0.29019302114830414], [-1.6552527891297013, 0.8559100961856235, 0.49827457578387235, -0.8647900972515051, -1.6633385552709214, 0.014239397401465919], [1.0136960766790695, -0.7262118649587576, -0.24772621721943275, 0.4480168591839413, 0.31866879836288453, -0.9191978518345592], [-0.49825730522551087, -0.6654351235645362, -1.9395884212610217, -0.5053758783339212, -0.8645637566660412, 1.0958608388701099], [1.841436540086598, 2.0944528287553426, 0.6603870104376991, -0.7116559761146152, 1.7357160821264785, -1.1030660491764028], [-1.1438750601865952, -0.3358089627004487, -1.4706776274213282, 1.6082501691205335, -0.34440320777087036, -0.19833013705694477], [-1.2034095997183638, -0.23275413363674877, 0.20690211610805187, 0.8550121082238236, -0.8938903806185844, 1.1845425169031079], [-0.7172980722146924, 2.086368102987687, 0.22784627428370802, -1.2534172938277606, 1.2440837042633592, -0.25244391135477257]], [[0.5071868074756336, 0.08363278153696364, -0.4317025323048986, -0.6623167939005532, -0.7481997556489626, 1.343884963247346], [1.3192514374575288, -0.03849665182629531, -0.6821931149385211, 0.7019287611217337, -1.9061344999436092, -0.8624787978841683], [-1.0961853616864208, -1.0722824918060885, -1.2197444948918024, -1.1735303540299231, 0.4077741879609308, -1.1876816954767666], [-0.26221522002336317, 0.14912244072550526, -0.2982744696570706, -0.4144296123886858, 1.7289639212046075, 0.7323379995480581], [1.07946681539775, -0.10971541368300972, 2.461982720549031, 0.8609934010420971, 1.426410897776879, 0.773106398900321], [0.5017539989643779, 0.23151698681778698, 0.14885142456821582, 2.1434949599886637, 0.1142578267890445, -2.1309973913066615], [-0.15973216222571285, -0.5221097673465964, -0.118026503161001, -0.17919712526456258, -0.26059305869113103, -0.23128617737434454], [-0.23790310807214685, -1.6333727025804534, 1.5575729585654645, -0.4226492893785943, -0.004773334409689116, 0.3312991126033571], [-1.6524769678777045, 1.4877256564808743, 0.16556004734885146, -0.7836533359183583, -1.0798926301869975, -0.5259215887511941], [1.1129416942238106, -1.0376608599801178, -0.3890986854362086, 0.23292430037477455, 0.343162416710698, -0.031343873152149405], [-0.290999179393835, -0.6958737294278394, -1.4669764139120518, -0.2192207839984278, -0.6219202061271842, 1.3212053101875154], [1.8650417527209067, 2.023216565182784, 0.8469926593690162, -1.240810532242257, 1.2627262416017457, -0.4808997104855241], [-0.8545159138142606, 0.02806812747819029, -1.0405778675044017, 1.4849917101297097, -0.4148235926164615, 0.5884547716855498], [-1.2984664086061666, -0.5269274409911312, 0.29834384314318607, 0.9443137140147185, -1.1403012713629848, 1.306100489780665], [-0.5331481845403978, 1.6331564994194294, 0.16729042826219093, -1.2728390195503345, 0.8933428569431149, -0.945779811522004]]], "salaries": [[183332.65410577535, 30000.0, 35146.84901284819, 260000.0, 260000.0, 30000.0, 93380.84615095943, 164516.3107865135, 30000.0, 30000.0, 115792.12136743139, 243593.13810758234, 68772.53244867313, 230816.2995204, 260000.0], [231053.97315930648, 157703.75910337365, 68884.10078505328, 260000.0, 241750.20918421695, 30000.0, 35353.013500224006, 117169.51506372502, 81091.54829207443, 85397.23631292046, 160616.85505575145, 101696.14228465293, 70998.12398509315, 260000.0, 130671.18097708769], [253092.77546057748, 30000.0, 30000.0, 227540.43411864512, 260000.0, 30000.0, 81043.94617841262, 189374.87373090192, 30000.0, 134098.1378588129, 209880.9056116981, 154826.38634951325, 191701.72822332702, 223504.90335971012, 30000.0]], "x_prev_mask": 16359}
{"id": "5059de6d-025c-4d40-84a8-58c1fd942aa0", "n_players": 15, "T": 3, "K": 6, "L": 11, "U": 12, "gamma": 0.9, "lambda_win": 0.6, "beta": 0.25, "churn_penalty": 0.01, "G": [44, 44, 44], "C": [1599370.207352291, 1647351.3135728599, 1696771.8529800456], "R_base": [22350948.36397914, 22797967.33125872, 23253926.677883897], "rho": [574379.2643756536, 580123.0570194101, 585924.2875896043], "Q_opp": [0.5166119923133322, 0.4858123244417193, -0.42800665129069887], "w": [-0.04586913223938112, 0.37329915669853475, -0.8686616002007163, -0.21375029484392452, 0.16625172465216673, -0.1750484543682397], "abilities": [[[-0.7767250304472271, 0.12153537728451186, 0.08799247337280756, -0.9705187207469744, -0.6858848232506881, 1.1123061101340534], [0.8874437730991089, -1.0753382614310951, -0.3506150909422055, -0.8276275792026574, 0.13092113417502538, 0.44125388985409314], [1.5366251072557937, 0.20986785028588367, 0.9920233042226194, 1.1729394047346364, 1.3650604125389352, -2.023768858125817], [0.07691684817672136, -1.3057357146427857, 2.2797915906741446, -0.30243720022857423, 1.3292518188263618, 0.02361144354303463], [0.25931551270234743, 0.7116524320965705, -0.0006656107580883442, 0.31292286941639685, 1.0397688441222772, -0.6834929616519602], [-0.24785845417956537, 2.3675878956248577, -0.3589023338193553, 0.3165831102860754, 0.6918530399088509, 0.4629399604225686], [0.787791546113096, -0.28691132478161346, -0.4571895539610049, 2.360851307680568, 0.8019176747746507, -0.51044893267525], [-1.2436290330334892, 0.3787595261683603, 0.03934353718439924, -0.49876548927655334, -0.588846987795628, 0.23248854146949796], [1.3244791062015566, -1.2125280582736262, 0.25756006367344886, 0.6973013598517798, -0.3452206692101733, 0.6075571288855124], [0.6848846018002087, 0.9703792641344449, 1.1087151199564744, -1.1606418223106336, 0.20008096422013935, 1.3840596200739543], [0.12137524950088951, -0.08626120864130774, -0.32656699534649375, -0.5387553816889639, -0.5945093350907834, 1.3727706816008816], [-1.8832160084532037, 1.3309734792562267, 0.6325655586301918, 0.6514945234982018, 0.8398061130415041, -1.5680431548021605], [0.699701208505451, -0.5923805789313049, -1.5652929693744924, 0.4874700293314227, -2.287457641689628, -0.6760856846135793], [-1.4233720233291265, -0.8832339127461855, -0.34446313715563714, -1.7596119752956036, -0.7442520040807663, -0.9168360626543434], [-0.8037324039125624, -0.6483667654029357, -1.994295956356808, 0.05879556395087871, -1.152488540490077, 0.7416882785395142]], [[-1.2673579502411905, 0.4589358512036049, -1.3175344249046013, -1.1498859090944313, -1.0331492162579874, 0.48947300060371474], [0.6529977646842068, -0.5141883950358899, 0.27762104212928157, -0.11805332108371999, -0.23533222369918405, 0.2740775405488461], [1.3692024006553707, 0.017886143552290935, 0.3397807077895527, 1.0199245082630457, 1.3447117342671726, -1.6469954663505122], [0.8606258147766297, -1.0038604128703514, 1.5489115590707576, -0.6430599222165835, 1.676544521076441, 0.47991915676822655], [-0.08864740373423627, 0.994253257095046, 0.6796055857943072, 0.8691744523686512, 1.0264955823771875, -0.8447689472887736], [-0.3921397170801809, 2.0254504824095103, -0.8323813880306993, 0.47263603308828506, 0.8458743293273631, 0.702196039699799], [0.7360538400479766, -0.46931036982471086, -0.5058889714073697, 2.275831820162243, 0.8711461326492279, 0.05318834384247687], [-0.6613591773361256, -0.3717217839652873, 0.006910477110627705, -0.5347987902217753, -0.5104002099051679, -1.0101603630982412], [0.3745228021531544, -1.0491480887405935, 0.7010184474002851, 0.9825878960430559, -0.4011403055497057, 0.7081815014516654], [1.336609691396695, 0.8653120399839643, 1.234027828150554, -0.7450853545879564, 0.005069820131225478, 1.5996235945008164], [0.1646179246500189, 0.18626331142514346, -0.16905759765000897, -0.8055135269878456, 0.01733609316854917, 1.3568212540484073], [-1.9659222591012608, 1.748332539557862, 0.8721572063355562, 0.31679552684214696, 0.21169382848683194, -1.407161830169344], [1.0331316476477772, -0.8754725121681479, -1.3601662093348754, -0.09855755975735193, -2.2215461137599024, -0.2731060939608553], [-1.1425965505567732, -1.415437772561119, 0.5892225129006242, -1.8669772812174676, -0.6365431847442986, -1.34532107117482], [-1.0097388279620627, -0.5972942900613215, -2.064226775353991, 0.024981428399700856, -0.9607607875677531, 0.8640333405785942]], [[-1.2857401286681922, 0.7034337871717475, -1.2017018325054551, -0.9341144694752407, -1.3346087916496399, 0.9138904093212612], [-0.24263447977428398, -0.7890477159430955, -0.37304984475933584, -0.48948326252720353, -0.3255199949847667, 0.5839135812221209], [1.3775680210034607, 0.05463530813675911, 1.204845572746358, 0.9726907151626978, 0.5207441539659711, -1.8171178400409027], [0.7721035465229683, -1.023150462692335, 0.8001739552008437, -1.0822195112912363, 1.7913706429479446, -0.14207985682386814], [0.6439259436761375, 0.8403755854317809, 1.1176538162776941, 0.33276331406224263, 1.1119337917335932, -0.05245264790557246], [-0.12043830606527059, 1.7367053630604394, -0.6916548075643912, 0.5148923210646477, 0.4739496827734596, -0.5015727240225896], [0.8706650498615479, -1.0084959328762577, -1.1010130318605071, 1.7280192197024615, 0.6419058492284099, -0.5196222982644771], [-0.9637535760912136, 0.20533715567476696, 0.1151855169211009, -1.2645435906841451, -0.24108757415778523, -0.5436339264702862], [1.0393820904848954, -0.729844834966576, 1.2044918916659015, 1.2655861963857329, 0.012187052564964539, 0.604426577208719], [0.6844991126761736, 1.379733766666763, 1.200125953375868, -0.21895519570650407, 0.5377764492538775, 1.6620169564544227], [0.5678916204970466, -0.04719515530912634, -0.17651165942317992, -0.6930370559264735, 0.4163213254997211, 1.2093643391320699], [-1.7433053902949736, 1.5806649727531392, 0.5874959387548775, 1.1894974893101502, 0.15604415621594203, -1.3410157022677802], [0.8484690994700262, -1.1084368764601071, -1.5914685937797348, 0.16727345704921656, -2.5143729106070896, -0.025619199970851356], [-1.3822233960054018, -1.2681387939386122, 0.44582821054754757, -1.7759518898190378, -0.8634516914313228, -1.2982599697057142], [-1.0664092072929212, -0.5265761667092865, -1.5404010855975865, 0.2875822626926908, -0.38319214135327856, 1.2677623021334483]]], "salaries": [[216300.6921300791, 177132.0184746064, 30000.0, 132436.0619211808, 112557.45156198958, 191333.3057488201, 125179.3047585919, 147325.03019091344, 192337.35839639764, 260000.0, 260000.0, 30000.0, 30000.0, 30000.0, 108909.59400326846], [87858.5034473227, 143187.7921316885, 30000.0, 189417.84159695002, 115399.0212588432, 260000.0, 222872.4301899787, 30000.0, 208316.56533997934, 260000.0, 260000.0, 30000.0, 38214.74927276976, 30000.0, 136480.86063644214], [165989.38932186383, 139064.51909883466, 30000.0, 124151.26351686119, 168373.752831349, 30000.0, 45583.08445525462, 30000.0, 214550.79793682267, 260000.0, 243062.31636046508, 30000.0, 67366.84104536922, 30000.0, 175154.22779570255]], "x_prev_mask": 31230}
{"id": "857bf813-70f8-43de-9974-fa7d0f609c31", "n_players": 15, "T": 3, "K": 6, "L": 11, "U": 12, "gamma": 0.9, "lambda_win": 0.6, "beta": 0.25, "churn_penalty": 0.01, "G": [44, 44, 44], "C": [1698992.8586542066, 1749962.6444138328, 1802461.5237462476], "R_base": [19919965.67226164, 20318364.985706873, 20724732.28542101], "rho": [591975.6440356944, 597895.4004760514, 603874.3544808119], "Q_opp": [0.3230190949323526, 0.6143700236770334, -0.3308492794994628], "w": [-0.25215373057257673, 0.11712307152133754, -0.9035383979277296, 0.21785610612746303, 0.2084167214165324, 0.12417822607444771], "abilities": [[[-1.3546067022631307, 0.27433277524346433, -0.14384402260364834, -1.9409813038412147, 0.40514669392312375, 2.2213607223593885], [1.4508708759283435, -1.3416786851300766, -0.9575130701912635, -1.0724134292879275, -1.1205098947017136, 0.9699767015466363], [0.6443923436625343, -1.414885547010672, -0.18596667802410363, 0.13526016843775493, -0.2465871121458591, -1.6086503727061972], [-0.5783856586583062, 1.73376658502826, -0.94520647112083, 1.1810189675083897, -1.1044846345406956, -0.44794223945236483], [0.7277952755267535, -0.21634361688273254, 0.7334023281199403, 0.622674111822035, -1.2856425094342134, -0.09370387995680816], [0.2500045513357821, 0.4952473962312808, 0.34609641555048754, 1.288413436176866, 0.967282743702, 0.5778496663620974], [1.0389889068280647, 0.6166569185722933, 0.6194304914801261, -0.10651201195044986, -0.49393117138236015, -1.0273306204000716], [-0.1260511169031158, 1.0176139995974454, 0.33056237338528904, -0.6452618122211097, 0.11495372147438923, 0.13967120400609082], [2.049945309581473, 0.81010339311419, 0.2003457620567736, 0.15805876961633733, -0.7283075574342381, -0.4663400523053805], [0.023559434142695675, 0.4349082836444171, -0.8543676774399835, -0.10333088425093125, 0.661318303576901, -0.14725405844161657], [-1.553569367001317, -0.6020336696807026, 0.34140544481125695, 2.2369365522887663, -1.4072771459516145, -0.2509051959342312], [-0.27118662872911514, 1.157904846268611, 0.8386770831145407, -0.7922456438275588, 0.36036587408779885, -1.3514879755715017], [-1.0705041580086676, -1.5866014374131756, -2.7153734857389793, -0.27506677383508077, 2.148973466206202, 0.6661790185690992], [-0.49573945035186656, -0.24666374696913396, 1.4780497327643916, -0.01506431899200537, 1.2273740388073409, -0.5935144836722057], [-0.7355136150901274, -1.1323274946134692, 0.9143017738360021, -0.6714858276438708, 0.5013251838129396, 1.4120915655970643]], [[-1.0301398090457385, 0.026845693174542676, -0.47142300125592385, -1.7640906674200036, 0.846241453972901, 1.1169697372828777], [1.119020162748855, -1.0041633207072043, -0.6641860773687656, -1.486967623313867, -1.4124879592015147, -0.011519182708102137], [0.8581015217090039, -1.6038066625575205, 0.009996338997395117, 0.1350464322570529, -0.5011159212698663, -1.441172455040857], [-0.1692162770541298, 1.6235101145521085, -0.8324477681435052, 1.2373164701604573, -1.3261857575234088, -0.3012405112866722], [0.3361510605618903, -0.005278838317511655, 1.126517516420806, 0.5722403826942676, -0.8345081711213718, -0.6347764274558909], [0.7725390676811733, 0.8210014083357362, 0.6121142069618719, 1.1191928175459858, 0.7887749149726839, 0.39282102571248884], [0.7166512190777682, 0.5055274933006332, 0.40726809034284017, -0.3805507311967346, -0.859992800970611, -0.3048338861896634], [-0.026975793009979713, 1.0689777440602035, 0.21559694838525884, -0.5942549184499145, 0.046346118942014604, 0.3307776720903999], [2.114197385132705, 1.0441904773314559, -0.09438824238432116, 0.5539816154810454, -0.5372678372085395, -2.122212127465711], [0.0026349729752608644, 0.4701159159330402, -1.1378489104126839, 0.21439184326940972, 0.680354954455795, 0.8664062060853537], [-1.9952202479905934, -0.60669154719494, 0.6618590747712007, 2.167891951638205, -1.0069266030257702, 0.48736125020256443], [-0.7184878734852065, 0.6861893867727887, 1.0679752063808257, -0.8240169662045883, 0.510775228012996, -1.0076799664795517], [-1.182977559750405, -1.721287630435446, -2.6639955227671615, -0.3391262521646431, 1.7906427871702448, 0.8347717731208804], [-0.31425998403881494, -0.04189951355791826, 1.238093921704614, -0.21499234291788702, 1.7256238161252961, -0.10555849097697176], [-0.48201784551178994, -1.2632307206899687, 0.5248682183675488, -0.39606201137878577, 0.08972577666915076, 1.8998853831088554]], [[-1.0426882273612048, -0.03530077171611458, -0.5391012331742825, -1.85780960051182, 0.5935717834129457, 0.42395900428367195], [0.6397573915679367, -0.7553482489006282, -0.7204140698302924, -1.4155055532485215, -2.1045886206473856, 0.12392483908954478], [1.3030098770983272, -1.6164881104134212, -0.31847775055284555, 0.21051628537525932, -1.0926874461924185, -1.1934597099078368], [-0.27435230430607305, 1.863599742811334, -0.722638861105528, 0.5128949929875202, -0.7231701383786275, -1.2882310160252504], [0.09761055888797318, 0.011864379862410379, 1.0768952177869822, 0.5527512097275914, -0.9889493617605691, 0.23366477420630144], [0.7433811032199464, 0.33563589885707357, 0.45186657024037136, 0.9711028325393355, 0.017343410425225584, 0.16674399483438554], [0.8043605908887427, 0.05352530674386901, 0.32371772517560515, 0.1217848152416464, -0.5132813554733952, -0.056703174471929824], [0.3656098914471273, 1.2578294663624248, 0.24489153596019164, -0.38743887504092633, 0.6424649101010056, -0.774712048643282], [2.1907989226214077, 1.169292489178718, 0.22012246334231195, 0.3983624586674886, 0.07129138964411746, -1.818353103968903], [-0.2794667131745546, 0.7303877561052304, -0.8562816541589353, 0.3203506972917869, 0.4618972326662123, 1.3406657846632266], [-1.8162634806962243, -0.8032254923319948, 0.6403994889649249, 2.5471612216310766, -0.8018052589013556, 0.8694893599339664], [-0.22844414099077964, 0.46541476727899067, 0.9468812355456462, -0.5601973928440408, 0.8451193688189027, 0.16999264268484382], [-0.8142291512367756, -1.5683392419120064, -2.4767111578239462, -0.49045506689229357, 1.9178019097322805, 0.7132523136408409], [-1.0308545317480178, 0.08095770299071549, 1.9417271402315455, -0.24515279658413247, 1.146190351451306, -0.877086082799894], [-0.6582297862178315, -1.1898056449166008, -0.21287665060174596, -0.6783652283399706, 0.5288018251017557, 1.9668524224803152]]], "salaries": [[260000.0, 192546.9382726802, 30000.0, 120331.48239707173, 109998.2895207687, 260000.0, 59924.80730237921, 149419.79599338686, 169012.7966229127, 122056.32456927755, 75235.11614596522, 30000.0, 113559.79133651312, 91399.49349377025, 253362.08640177295], [203263.20308135613, 55245.11402356352, 42216.25380975123, 91548.2336532535, 89142.36872444603, 237704.58806217788, 96561.11898622703, 139687.7133836007, 30000.0, 245572.62958904274, 162667.43169569573, 30867.363285847216, 125174.25339805074, 154354.6310104682, 260000.0], [110213.98771205738, 88054.65420104508, 30000.0, 30000.0, 177360.55242958412, 163841.90013585417, 102763.61735334853, 75104.76448861008, 30000.0, 260000.0, 204400.2707128647, 152904.4510451497, 116300.58313107482, 31656.592673814535, 260000.0]], "x_prev_mask": 16350}
{"id": "0c87d51c-8f72-4490-ba61-8bc237a663db", "n_players": 15, "T": 3, "K": 6, "L": 11, "U": 12, "gamma": 0.9, "lambda_win": 0.6, "beta": 0.25, "churn_penalty": 0.01, "G": [44, 44, 44], "C": [1528557.821802188, 1574414.5564562536, 1621646.993149941], "R_base": [18683115.180260986, 19056777.483866207, 19437913.03354353], "rho": [676391.3728905758, 683155.2866194815, 689986.8394856764], "Q_opp": [-0.3323065472887934, 0.2717078378052746, -0.20785828134896234], "w": [-0.42190343113262835, 0.23486186015997831, -0.5841137638283553, -0.4087470355408561, 0.06173043406114676, -0.5047412461475073], "abilities": [[[-0.87017238357693, 0.7550714712954969, 0.8904540522769345, 0.7701939896652475, -0.4929303294448326, 0.38886233029650646], [0.476105038466708, -0.3406579500064694, -2.079689017035098, 0.18710074014206557, -0.2474389284178327, -0.23342420103593742], [0.7508394584967576, 1.4865654632176444, -0.6520613150059583, -0.07211363463843354, -0.7152091165900325, -0.6887942732388307], [-2.0084962905399615, -0.46081723495098126, 0.9070290733063678, -0.20023590472336483, 0.4846118038274673, -1.5202057793777464], [-0.3089102288835004, -1.4083155937331158, 0.8321097709756254, -0.5484284461232457, -0.7262781551292763, 0.622980372452848], [1.9378653747035979, -0.9110120476303344, 0.5765832476328314, -0.24863085809312432, -0.24396382365585836, -0.3173067691281081], [-1.5426435952053912, 0.024664628013626316, -1.719589672970944, -1.9595100686451494, -0.49412304910497834, 2.6242649416873927], [0.11980877466724466, -0.7076958270013551, 1.0431743500389212, -0.4450860042567471, 0.022495451445265796, 0.965638254306675], [-0.8631147321547764, -0.5624353921494066, 0.7086369003923008, -0.23795536045254487, 1.6090704961662865, 0.061264851541635], [-0.0433474346818346, 0.595754473156332, -0.4848486866926523, 0.858624408404649, 0.7474837412148956, 0.6142162025942547], [0.40545430857615405, -0.9180156141579453, 0.771277025448415, 2.0905691412846896, -0.28452783929523795, -0.438217784232366], [1.2942567655143788, -0.8532724782041855, -1.2750335975197389, 0.18232858655169054, 1.055095178679107, -1.5681234365416135], [0.6141715480264834, 2.4376934331386138, 0.6483197439027386, -1.8618130942406035, -0.8798137899495951, -0.7404668878220263], [-0.3043121612761923, 0.3300189107644549, 0.2101304243895527, 1.0250112621204952, 2.0812592562439516, -0.10234628279833022], [0.3424955578672614, 0.532453758247625, -0.3764922991392961, 0.459945243004376, -1.9157308959893293, 0.3316584612956459]], [[-1.0226560991612679, 0.3958621082114594, 0.6666734655452786, 0.5444467356030265, 0.7827572881417969, -0.11619264079466915], [-0.07485671787364981, -0.6720703604521097, -2.250207384193566, 0.3146608287674252, -1.178147727293239, 0.4694764762352123], [0.7969153290709499, 1.6519763961083203, -0.023148430193099822, -0.12682565686045952, -0.5364091826424997, -1.5466086532010974], [-1.6054373147669774, -0.4672982471038049, 0.40220200223751057, -0.14953026603157807, -0.08198048609306531, -0.9847433911586905], [-0.05597224987800018, -1.3634279717728888, 0.9895483188749822, -0.5974954396093147, 0.3197848207656346, -0.7380540891627633], [2.125284495181273, -0.24725423895462673, 0.6647270996164616, -0.07096454367065973, -0.3698237176051878, 0.7868702605692974], [-1.6784279951547592, -0.1048412908280467, -1.7944462743587695, -1.6144489789299228, -0.08573491715133438, 2.4106152822055096], [0.5453337378964629, -0.4941859268501505, 0.6290552303336382, -0.29662043961574736, -0.4459177745031505, -0.10937695771045365], [-1.1710396289215241, -0.18012592702406718, 0.8391074899888417, -0.10456127418903971, 0.7549402061652521, 0.34110776732594666], [0.13697405244743246, 0.5133408751851708, -1.0953777541376897, 1.2985856147640595, 0.8480516719105936, 1.0433031995186763], [0.46856267034732163, -1.1407886381554075, 0.6380135795324284, 1.9724130358657421, 0.8448866972196575, -0.40502031844741354], [1.1506301829522334, -0.8156321486699774, -0.8434873376415368, -0.09167119048532774, 0.6800328634404896, -1.421172621363509], [0.3410646526838284, 2.6386303284853403, 1.0905677417496407, -2.1879935068486565, -0.18717924464888502, -0.19201725998291325], [0.18105796355402354, 0.10350474327890384, 0.24011723060342013, 1.060082043910211, 1.4314461161274317, -0.4344279561715792], [-0.13743307837734725, 0.1823102985418849, -0.1533449779575402, 0.04992303733024123, -2.7767066138334946, 0.8962409021384465]], [[-0.4988371351380091, 0.5568217512804189, 0.8218641002195847, 0.7016151719850198, -0.7234099819160411, 0.2498555871020063], [0.4467341586830532, -0.040953942747174135, -1.7942970408415517, 0.6926849773433408, -1.1021989350695907, 0.17819735371099577], [0.5371396445482445, 1.5767193531731334, -0.06350790118623008, -0.12618646336249942, -0.571736041411854, -1.5076815794638343], [-1.816055093397615, -0.8370024425687935, 0.4389400208243536, -0.541879947792241, 0.552820841203105, -1.417414496450116], [0.2440063008432665, -1.2201317103212113, 1.0868612406018385, -0.741218773594914, 0.2267801349179625, 0.13025284497357784], [1.9343690467894106, -0.4513680624876739, 0.6832304454712461, -0.11842244673499681, -0.046985458929483456, 1.53456591501939], [-1.4052889478823505, -0.1705526752108466, -2.1960582231975003, -1.7614480480870716, 1.05013040258389, 2.302003667698873], [-0.22907218356007358, -0.6794261874182874, 0.5637480332757082, -0.09872441752994567, -0.18193938693761383, -0.006729148722483618], [-1.2481235443787357, -0.3673230696186072, 0.519339156543028, -0.5857128449320794, 0.10424673635000503, -0.11053878922665994], [1.0634404360726266, 0.871384483142253, -0.22907010764850833, 1.226137077926627, 0.8713496362281795, 0.7298777915989559], [-0.6711297889769958, -0.9816922481480683, 0.7863203026862665, 1.9103214671977595, 0.6149618203883027, -0.8469913525941518], [1.2808612703911302, -1.393796827439227, -1.5425148318638267, -0.0747349962574268, 0.46279654470819936, -1.0914283291650935], [0.4698957472642819, 2.237200145436209, 0.8503721267015082, -1.874863802422216, 0.11987184005009202, -0.409238790051755], [0.20099566780027386, 0.682108547451422, 0.22975969359723472, 0.8643795339666336, 1.446527017505795, -0.2522775752308802], [-0.30893557905850766, 0.21801288547645326, -0.15498701518315175, 0.5280535122940103, -2.823215169670948, 0.517546900801175]]], "salaries": [[195825.59450695082, 46177.70430882103, 82643.4387108305, 30000.0, 144635.22065155255, 77384.90794769576, 260000.0, 226085.33852377877, 197403.7815331714, 202903.8593479999, 121055.68490823136, 30000.0, 66508.02216080381, 151942.64400843636, 150300.80692305966], [135366.31809890014, 107710.5939017344, 57110.6678317336, 30000.0, 53374.59418452912, 260000.0, 260000.0, 93629.05994084771, 182838.91929346666, 215320.61279331724, 180217.88574189018, 30000.0, 116527.09556041894, 168377.55338954693, 179360.14870272807], [167823.10168769016, 135114.21612973209, 30000.0, 30000.0, 138052.90315040294, 260000.0, 260000.0, 136078.08200350104, 143986.19862544214, 248757.03870844352, 64823.90603902214, 30000.0, 184586.41635756707, 135037.8265716638, 122080.01357566737]], "x_prev_mask": 32063}
{"id": "dfd4470b-3b4c-49f9-9c3a-d21344f18109", "n_players": 15, "T": 3, "K": 6, "L": 11, "U": 12, "gamma": 0.9, "lambda_win": 0.6, "beta": 0.25, "churn_penalty": 0.01, "G": [44, 44, 44], "C": [1461061.0681523946, 1504892.9001969665, 1550039.6872028753], "R_base": [18948071.17792381, 19327032.601482287, 19713573.25351193], "rho": [609278.9741465088, 615371.763887974, 621525.4815268536], "Q_opp": [0.3664493412902345, -0.6754105295093252, -0.6276639568659211], "w": [0.6001561664229852, -0.3588270168887878, -0.11886422591038866, -0.36267889349550614, -0.2629536396201029, 0.5442852620370928], "abilities": [[[2.2193510136093106, 2.425550514352143, 0.14623621616675467, 0.7309882246999403, 0.14088963681524191, -0.6330450958542041], [-0.07893775618695797, -0.5253942775426383, 0.5449516209471051, 0.6797096732857902, 1.6057252510302753, 1.2766321598370625], [1.1633574065990033, -0.07044164585176761, 1.979377931118362, -0.42936554196521826, 0.3467212108793376, -0.09520239100731819], [-0.38266952286280354, 0.7448888591451005, 1.253405462914083, -0.7981951958000774, 1.4814011480817333, 0.3151349003089399], [-0.3124806697875504, 0.7830129654362155, -1.2915006701955878, 0.03348807803052685, -0.7011593156908658, -0.7462276697805761], [-0.40702993743822896, -0.30299265741576825, -0.6430137753480464, -0.8118577262857413, 1.1196710913476724, -1.2634073510208483], [1.1696631928975332, 0.6134617495973735, -0.35984548839632496, 2.589306043322937, 0.19908236555500589, -0.3627030035408029], [-1.122178771140918, -1.286460954573497, -0.572645919159184, 0.32718519525562734, -0.5714226635372824, 2.0648856668694706], [0.9755732508496082, -1.5103246432126045, 1.3746906464320368, 0.260677772250927, -1.2388757925162361, -1.9353977927845556], [-0.46437342839692025, 0.1399399537412659, 0.8384957018099818, 0.48631500965725877, 0.9584657123710976, 1.0847956787939188], [0.08568293460044657, -0.18774284661520727, -0.9537695772523137, -0.5662074105894022, -0.8298129946124465, 0.3861167912766497], [-1.1443196344483217, -1.3291825366805041, 0.07167157674946156, -2.0820213103605085, 0.2972509153281395, 0.5706126318141869], [-0.13117338039133034, 0.9414598859592697, 0.11511006905845689, -0.7448412866635202, -2.120895506659409, 0.4850440004970691], [0.20044451287902884, -0.6978243932112285, -1.25185617681348, 0.4297941921069487, -0.269499506696067, -0.678865393779977], [-1.770909210781899, 0.26205002687184714, -1.2513076180313054, -0.10497571694548741, -0.41754155169619694, -0.4683731316290151]], [[2.1580601035749187, 1.9562168288352992, 0.1382984988213326, 0.5590974265867975, -0.1534174025524269, -1.2533213189242902], [0.39854165169573924, -0.7513420140159061, 0.3460905971188146, 0.6445646598381093, 1.3091116829136802, 0.9918737164202812], [1.228435966927246, 0.1383374850632357, 2.031335385117828, -0.5909430125655073, 0.5635580060273573, -0.5039309382412733], [-1.1202376408730557, 0.6804731241155881, 1.5820953945957745, -1.2143671140193906, 1.8235725700767285, 1.0514845734213063], [0.01158385672753441, 1.0786013869894242, -1.218629422342079, -0.013556100904407231, -0.2744467144126413, -0.02694776089940541], [-0.47227670823092033, 0.26515586396445845, -0.6722660319844547, -0.9187906323160623, 1.0821585870007162, -1.0215652984114745], [0.9928866244521717, 0.5127848854297267, -0.35002558783372595, 2.3943453055097916, 0.30594363068214275, -0.3508262050443132], [0.03193242031884653, -1.3517237061314682, -0.6435723730657632, 0.28716993604551394, -0.7768462108643462, 1.082260168855761], [0.37760245168763595, -1.951827497885062, 0.9705879423155643, 1.0338735084233523, -0.8343329481610413, -1.1404012817201135], [-0.9735042761006711, -0.14272197472690346, 1.1775127561686325, 0.351422579465328, 1.03015984370928, 1.0427177367345952], [0.21360842730097285, 0.1792548556617743, -0.9506302308698328, -0.7024974203267009, -0.4475418287360927, 0.5990315724458248], [-1.2226806607617091, -1.3683931199584909, -0.17644191247020521, -1.4996947439153865, -0.4624618889702046, 1.6020242757165806], [-0.6537456097700786, 0.9815051025776441, -0.0177752414377443, -0.9496686561366471, -2.255366756067942, -0.14876260404394995], [0.672702012365468, -0.3120713209640555, -1.2455982682487245, 0.9259114702340911, -0.49908098191542294, -1.8454762800872186], [-1.6429086193140992, 0.08575010104473524, -0.9709815058854163, -0.3068672059188822, -0.41100958872978743, -0.07816035622231031]], [[1.4844553840689279, 1.816555103427459, 0.43973027893065025, 0.41176598346065035, -0.9847593371632307, -1.351102250725586], [0.6553909553221802, -0.9800260528776112, 0.5571871352996304, 0.49309831934428167, 1.5248810299559852, 0.6510854168338499], [1.3658429883556655, 0.4947229004458041, 1.8662452994564762, -0.577136386355166, 1.08836810478316, 0.48824382749220574], [-1.8021509797256257, 0.966002785079294, 1.5924157806009631, -1.4902245074921887, 1.249161809392704, 0.7805835761038863], [-0.3388965276293421, 0.8421627708455783, -0.9649391987424997, 0.3341684285259246, 0.026155959933649248, 0.1582514432384049], [-0.08526840094024503, -0.23495654317131554, -1.1319770350844545, -0.6271174884972939, 0.25146288803627714, -1.0250266630623566], [0.2534190511037864, 0.4386716560276185, -0.32944562284783135, 2.3637091454089583, 0.7927625317180886, 0.012506385603611355], [-0.8438778402509289, -1.230427686844123, -0.5864025638269181, 0.4474459337760823, -0.8555193191665624, 0.9940498425733223], [0.7690536091187012, -1.820926356302658, 0.6906890590047902, 0.6659519042505901, -0.6209763977669304, -1.430419612255797], [-1.41899323329069, 0.7547679444406408, 1.2651116983709092, 1.0011495986450931, 1.6317566717498686, 1.5219896055123285], [0.8832818291087089, 0.3618356726370739, -1.3372246224011743, -0.5924864593230137, -0.628185327826984, 0.06391526399996308], [-0.6295540768644745, -1.2993765689175365, -0.5141914612182672, -1.8151725665631229, -0.7329243407347465, 1.190739155397518], [-0.06658275214066314, 0.7212003105412738, 0.16493492067191512, -0.7957188716504402, -1.7487526913297138, -0.49825461153636424], [1.014680722065753, -0.925707367019796, -1.163972873521226, 0.08721841825072142, -0.5420341087927628, -1.9172947718435258], [-1.240800728301754, 0.09550143168829812, -0.5481607946929644, 0.09334854821892341, -0.4513974727888011, 0.3607333926685412]]], "salaries": [[139524.4496279942, 260000.0, 148725.6929537606, 233745.26540943427, 45308.49369741583, 30000.0, 115565.56975297918, 250175.00269518385, 30000.0, 260000.0, 110158.90229114034, 109510.9958634803, 125346.54000292608, 66480.76309855556, 30954.842834908064], [96754.11856188887, 260000.0, 144040.64750680982, 260000.0, 93697.29549101568, 30000.0, 163517.11841102163, 223866.90312923538, 30000.0, 248251.3401546894, 156342.54280308838, 230897.77135754042, 67960.65796444591, 30000.0, 30000.0], [30000.0, 216128.84881268404, 260000.0, 238992.8885001115, 95478.39815118353, 30000.0, 164121.7490793002, 173156.0701578388, 30000.0, 260000.0, 81006.59970916588, 154412.3365118975, 46732.14726540172, 30000.0, 121424.31189899509]], "x_prev_mask": 32125}
{"id": "86134ad6-fad8-4bf6-94e7-f05589c9145b", "n_players": 15, "T": 3, "K": 6, "L": 11, "U": 12, "gamma": 0.9, "lambda_win": 0.6, "beta": 0.25, "churn_penalty": 0.01, "G": [44, 44, 44], "C": [1507479.6723170984, 1552704.0624866113, 1599285.1843612096], "R_base": [17217341.759036303, 17561688.59421703, 17912922.36610137], "rho": [585577.8398727813, 591433.6182715091, 597347.9544542242], "Q_opp": [0.30054681800377675, 0.8092263187953556, -1.1254123730078287], "w": [0.06590569026362866, 0.01584536351886661, -0.504387519371513, -0.20122085464342893, 0.267239020271084, 0.7931532434864339], "abilities": [[[0.2989487164600427, -0.11163449917584037, 0.4749822227896233, -0.7272207164756587, -0.7603749246273727, -0.6024863578204747], [-1.377425388772657, -0.4182392187734124, -0.7751852290750213, 1.9332058777488517, 0.1154947221289838, -0.9529522569968039], [-1.024326851875449, 1.1473752735905172, 1.5566972460291506, -0.29420719434200565, 0.4173656297052188, -0.6726896880197681], [-2.3550431816211845, 0.8429335486054808, 1.1947543934087186, -0.06048961008950201, -1.4896267078031413, -0.6274638835330536], [0.5924773278283805, -1.1662635483956034, -1.5848769580516144, -1.772298606379813, 2.59488992024622, -1.137515495000277], [-0.34449057036341235, -0.22059329307829692, 0.9007309943573635, -0.03484738339435077, 0.2805311680740836, 1.493591337861293], [0.5206917880346174, 0.9504848653034375, -0.14501078177939963, -0.11517452322570593, 1.1365056293826452, -0.5130578474313481], [-0.18230518897211667, -2.2819153122875635, -1.4256509421309562, 1.1699406944679913, -1.6657393030940963, 2.588116760782988], [1.1944807957303416, -0.6274597571496516, 0.8202051107253626, -1.696380185998131, -0.20581239134500645, 0.7912883567340053], [0.6403597365118786, 1.0021834683635504, -0.5823063249851531, 0.9819296306804631, 0.5535163465180957, -0.4162789266345069], [0.9414334540689142, -0.21180436853171583, 0.6713706850967167, -0.8584435884665435, -0.3297881551818609, 0.35559709897979414], [-0.8777180089133202, 0.4176532014861097, 0.05114014999617796, 1.1427080886368424, 0.4211414941991215, -0.46650383841962284], [1.1671801147458087, -1.2692012661058203, -0.2226396773345584, 0.043629719473925514, -0.11665400487623244, -0.6710637347750895], [-0.07845781307726363, 1.2411742878753986, -1.6908212834309906, -0.16560476139101166, -0.3420654813762133, -0.062245298834964415], [0.8841950702154204, 0.7053066182734107, 0.7566103943845788, 0.45325255875464854, -0.6093839419504435, 0.8936637731078291]], [[0.570248903994581, -0.5834383161227944, 0.2755021372639455, -0.6178968697216005, -0.5886022746781951, -0.5923957476261703], [-1.4283868964342872, 0.16852583027738732, -0.4027195335362951, 1.816831139015291, 0.3355746118682748, -2.177868556718356], [-1.4662181937691903, 1.141225462441697, 1.665142479527825, -0.019284662957410572, 0.18999183968569525, -0.8708633002770323], [-1.7422015876947412, 0.3871671142479069, 1.0286491786998804, 0.15223628300517475, -1.3845200980592112, -0.3781094056546824], [0.9314150048502676, -1.432081185277705, -1.6060625823753643, -1.6422933154541484, 2.7146995269059864, -0.9146079558709729], [0.17299958145141045, -0.7264377251763503, 0.9134763024922206, 0.08730407652739652, 0.12203368500090546, 1.3721274907268053], [0.4120442446079997, 0.7330347172305516, -0.19109978752324724, -0.27730131838624594, 0.7114480158632089, -0.07585187947001842], [-0.49701675832761777, -1.9854948395660372, -1.3414189811403732, 0.9238474016887293, -1.889793041132277, 2.169975256464047], [0.856312817594397, -0.3508488556190099, 0.639878980833327, -1.6138906662811205, -0.5230975268586749, 0.9425658333459338], [1.3048240995317173, 1.0026212084185993, -0.6283355175215819, 0.7914805998903206, 0.37584389082737873, -0.08094344405968927], [-0.3002462954127411, -0.5952995043850386, 0.7741195003568506, -0.43451828773710915, 0.5660308170402086, 0.25662595971934943], [-0.8280117011097056, 0.5676414278568281, -0.043564079816789565, 1.658808937122525, 0.08098834604951667, -0.3830323433587849], [1.4262067780153036, -0.7661640964193188, -0.26218420452394425, -0.4101801878779544, 0.034331180563742895, -0.18918773985178283], [-0.3045882792699698, 1.83343465252716, -1.8017007819164583, -0.9926458675734122, -0.602143158529003, 0.4232872620625822], [0.8926182819725754, 0.6061141095661241, 0.9803168891800049, 0.577502738739565, -0.14278581454755665, 0.4982785705687723]], [[0.2136683240327355, 0.237051054669158, 0.4061107710191693, -0.5616211656471274, -0.807420042296151, -0.7167315445631273], [-1.6645147760886727, 0.14642259248352177, -0.2792937048612378, 1.9298324501480302, 0.23752270804185774, -1.3123151342023347], [-1.3379172781183646, 1.2487958892381317, 1.8491343869078276, 0.13674561995250506, 0.7923398219580102, -0.45236595931690937], [-1.3975483925444185, 0.8285281247956933, 1.0659297254743236, 0.13706122407461385, -1.771471430847971, -1.0306413040856306], [0.3558467869272036, -1.6083780844940967, -1.4186401758619855, -1.35623961038475, 2.487931777657431, -1.49429979614709], [0.09370287242591485, -1.0944863753376248, 1.2908501703356612, 0.18607932348204925, -0.09706265619462422, 1.9207400543510247], [0.2529851756488599, 0.23242648539335053, -0.28597020113964533, -0.45167814649820054, 0.37690448476811983, 0.1183374920953735], [0.21211906713686113, -1.947100706138432, -1.4155047568196295, 0.5721356683601789, -1.6617576054393373, 1.9218409867737705], [1.592301501560303, 0.1265598210977326, 0.5318392887948585, -1.7537522738689357, 0.09230818968061869, 1.0388511566582315], [1.3899338970325081, 1.2664622823595937, -0.8730671139713705, 0.6365400325808783, 0.5618168885382012, 0.13455550545640074], [-0.004019862855270958, -1.054264633237441, 0.2816656117555739, -0.4054302425212883, 0.42771228862703836, 0.36146656492272655], [-1.3902881288296305, 0.6801710010898769, -0.16504014090120708, 1.9891088400342543, 0.06836024107659139, 0.24044178920144751], [1.2680897505991988, -0.6781087614519389, 0.10720507327888786, -0.2157409787754853, 0.42531360243423033, -0.3448740576983018], [-0.017436152467949863, 0.5994774547410385, -1.7039787714495742, -0.9283825379130153, -0.35519984605140054, -0.6333982882390952], [0.43307721554072304, 1.0164438547914374, 0.6087598374383478, 0.08534179697629227, -0.7772984219526146, 0.24839253479351436]]], "salaries": [[81553.48393896027, 46615.30656638465, 106930.87706581573, 87594.06582763907, 30000.0, 260000.0, 143810.1469341032, 260000.0, 205993.63302871372, 137235.85669376294, 187803.3357748674, 65864.92967205579, 48837.56605019038, 87734.52366880709, 260000.0], [93843.62526814544, 30000.0, 75453.28207885176, 41727.66513440715, 30000.0, 227813.7031109637, 187272.41896461815, 248293.9655584059, 170463.2090027729, 188144.11906332857, 160684.07456800062, 95298.74111761837, 114377.84397786506, 126779.02816870481, 202793.83531618738], [43947.613255489276, 30000.0, 130455.45109516759, 30000.0, 30000.0, 260000.0, 148276.87279729673, 234102.97472487995, 228639.42789556336, 181203.9448452893, 159099.73834741703, 146508.51600352235, 87372.51249806226, 30000.0, 145683.34849013685]], "x_prev_mask": 16223}
{"id": "a5aaa23b-f824-412d-8c79-f8f0aaae75df", "n_players": 15, "T": 3, "K": 6, "L": 11, "U": 12, "gamma": 0.9, "lambda_win": 0.6, "beta": 0.25, "churn_penalty": 0.01, "G": [44, 44, 44], "C": [1576147.934779996, 1623432.372823396, 1672135.3440080977], "R_base": [20289388.31438518, 20695176.080672882, 21109079.60228634], "rho": [560392.8467920955, 565996.7752600164, 571656.7430126165], "Q_opp": [0.12363147863536242, 0.019591255535546914, -0.031284264167799586], "w": [0.5872066417338759, -0.4399790176892877, -0.6079146308766686, -0.025107318627095022, 0.25087123070819195, 0.16875980888414086], "abilities": [[[2.28608667555699, 1.6726090416936252, 1.213847110828921, 1.3624750567091573, -0.3834015983984068, -0.15436071834719814], [-0.30133055352755284, -0.022046195345348494, -0.6622021689882105, -1.4498777486827081, 0.0751977349600902, 1.6412767634182701], [0.22771173387483676, -1.008509109443811, -1.251348140570175, 1.9394658836352592, -0.09965857914295988, -0.2604939917445243], [-1.6003438697860102, 0.579839315196192, 0.43585138176409094, -0.4030880011851853, -0.7327463926410801, 0.6070861633787411], [-0.9373391362691812, -1.925790501774923, 1.704459282919479, -1.1175065904240107, -0.08215004244020581, 0.9450624515437104], [-0.09981830286707967, 0.8903284387661756, -1.1175384211453379, -0.6071849816560082, -1.8033221485471713, -1.5002118136515472], [0.4119435129433209, -0.015550523792480814, -1.3629941798893055, 1.148081366159424, 2.369103411773768, 1.636270730993084], [1.0950069813138052, 0.2022798912750044, 0.30905449032174476, -1.411072520745188, -0.894319040245002, -0.26360029682059544], [-1.6998769674497525, -1.3713046664492141, -0.13685797267452948, -0.2741994068195378, -1.2016320134108653, -0.7833349141959528], [0.8037077341804331, 0.9688495325423594, 0.3563136579435779, -0.15362417607811124, 0.9604881024270912, -1.0779888085718778], [-0.7300505093496186, -0.6250715342756011, -1.6578754245806233, 0.9417333109155936, 1.282863790382258, 1.4466370999353357], [0.2599151042086683, -0.8087035807317278, 1.0098490836633187, -0.3885786639589129, -0.03562933819704106, -0.25457219087639665], [-0.018296340776897974, -0.5045003078372494, -0.1810885722780586, 0.17645348178669829, 0.02848240466752187, -0.022124970210314777], [0.7128343434451829, 1.3387691148327812, 1.1058935665407632, 0.8237821673575803, -0.23232321261055272, -1.2050924872806452], [-0.4101504054971437, 0.6288010853442179, 0.234636306144345, -0.5868591770140498, 0.7490469214225557, -0.7545530175700892]], [[2.2219880710686346, 1.1374542014346813, 0.9230085459563531, 1.4917497489559173, -0.28070405150907546, 0.6748970463726413], [-0.5193494433060857, -0.3749064851495901, -0.46587344383504836, -1.4374197180639148, 0.08651979569461705, 1.8567331867010342], [-0.24538638061404336, -0.8558451938006792, -1.199245681583531, 1.982531615559646, -0.23761348430856147, -0.10733755018475832], [-1.3771536400736353, 0.8615159347064643, 0.36929138775694215, -0.32242946099704006, -0.9122197134460066, 0.2076823568580391], [0.02056606704256215, -1.9920455156660029, 1.8509549404563217, -0.663777748591302, 0.014229715299250592, -0.0760628437847062], [-0.3382031890580915, 1.3023029497362413, -1.259603387989044, -0.965693903288945, -2.0437866954218755, -0.888209919601464], [0.9314636256544953, 0.2509338674947399, -0.9463595795292554, 0.728482080021409, 1.9405835171821622, 1.585347232886958], [1.1217092445837122, 0.16932298262059925, 0.5304465017638262, -0.5956019018892325, -0.5765203779657714, -0.3969280185400766], [-1.4661749554625858, -1.2553598841026439, -0.11163659877099029, -0.8596946881703251, -1.153411659951214, -1.1874165066307936], [0.9412131086207709, 0.9916185293383918, 0.03583447424510464, -0.0007570148074190897, 0.6159524720193382, -1.0704440080159165], [-0.9381043133023158, -0.6276602820910111, -1.7538582385754335, 1.058556600890724, 1.8917089471579196, 1.18868175066208], [0.3763553363372622, -0.7828968305375115, 1.41467173392648, -0.9279852258477251, 0.22616867637509921, 0.16402958971469564], [-0.9590632982510398, -0.611659348887124, -0.00479363902971063, 0.22697885016213556, -0.18497557759743502, 0.31295619658486984], [0.6591743351435969, 1.5251786207223925, 0.9739070658760897, 1.0376834597289972, 0.0009451913845998168, -1.8103875362209565], [-0.4290345683832365, 0.2620464541810521, -0.35674408066810454, -0.7526226936629254, 0.6131232450869517, -0.4535409768016469]], [[2.375860239231989, 1.598368340074042, 1.2034951305331825, 1.2822980315776293, -1.0631867868790992, 0.45247438011002306], [-0.17536361437395862, -0.46379701750024854, -0.6718019875030178, -0.992627512186574, 0.2532472178755199, 1.4427025318759408], [-0.13925748793498513, -0.8561108197381033, -1.3073341817365878, 2.163317345359564, -0.16964889026205263, -0.1532041550356138], [-1.1910687410591747, 0.6914684231439985, 0.0900138228450507, -0.6076878235685998, -0.03384850052119157, 0.5185506101380483], [-0.46736296009868944, -2.190486372655049, 1.1089734757297416, -0.41517241193792354, 0.20887514721566264, -0.12488301105244816], [-0.36567159046240544, 0.9383493307992988, -1.2593000567834123, -0.9895997275111444, -2.0301065976036075, -0.9661564735123748], [0.8401885245669362, 0.5669813746241867, -1.5761878369753537, 1.0093924898755129, 1.6521361165772146, 1.3012358748888393], [0.9267264005582471, -0.1847903481290269, 0.3793350806853463, -0.9755302403981553, -1.1842800227704493, -0.36954483078279904], [-1.9957463875552008, -1.1905182864922785, 0.20258489564924917, -0.625641493702707, -1.008466901957971, -0.8641828829580389], [0.07406995613978672, 0.5617385269437866, -0.03322143727655624, 0.16360231634341998, 0.7735587997131076, -1.2800547474507955], [-0.9247778275944893, -0.6250386800937752, -1.505522959576483, 0.9396319704957196, 1.7670956816375019, 1.1795875585363285], [0.6823099989983938, -0.391044707819863, 1.4149336629623877, -0.754686654680093, 0.08412953594119452, 0.4005266518943771], [-0.28391431505103193, -0.41475055780990183, 0.26573553023853796, -0.18354891013708557, -0.1668159202854542, 0.4508263337655481], [0.7535039280623982, 1.5348575291706743, 1.1016022184672274, 1.0642308439483972, 0.08124488801846093, -2.321795014666569], [-0.10949612342781598, 0.42477326548225897, 0.5866946427406873, -1.07797822347796, 0.8360662333011637, 0.33391717424953204]]], "salaries": [[191172.20460441284, 260000.0, 62575.25991583804, 165778.9094397403, 199735.48456437356, 30000.0, 260000.0, 90712.98210804714, 30000.0, 86251.20130171241, 260000.0, 78191.4770984362, 109703.97823928826, 83072.33550522523, 30000.0], [260000.0, 260000.0, 107267.87417274404, 122604.85916054095, 72953.08157546222, 30000.0, 260000.0, 106600.35571855296, 30000.0, 52671.1743353943, 235494.63999084078, 140446.07652110633, 132486.02806308397, 30000.0, 106112.73931249282], [260000.0, 227911.61680833384, 62371.9783956616, 160981.19513665888, 32563.08089703438, 30000.0, 260000.0, 68022.79617557541, 30000.0, 30000.0, 260000.0, 189041.81417049697, 146720.22553035212, 30000.0, 186094.05538134766]], "x_prev_mask": 31677}
