{"instance": {"id": "84f7faa0-39c1-4e86-8a43-356ce973cef1", "n_players": 15, "T": 3, "K": 6, "L": 11, "U": 12, "gamma": 0.9, "lambda_win": 0.6, "beta": 0.25, "churn_penalty": 0.01, "G": [44, 44, 44], "C": [1564877.377265565, 1611823.6985835321, 1660178.4095410379], "R_base": [20705725.029149745, 21119839.52973274, 21542236.320327394], "rho": [588227.3843652827, 594109.6582089355, 600050.754791025], "Q_opp": [0.18414658919750884, 0.8141663391385995, -0.041630749642299465], "w": [-0.7196959234266632, 0.3863851080329912, 0.42437706458136043, -0.060997788438411284, 0.08963347579381059, -0.3753578852240945], "abilities": [[[-0.4799218642137752, -0.22170280676909704, 2.0550691197254545, -1.3077177386250747, -0.926323921042641, -0.40804182180274895], [-0.899271065953968, 2.3865655081614525, 0.2760830794711589, 0.17375270653060465, 0.5448964241427297, -0.5849789373809665], [0.638342673760072, -0.2651739453512729, 1.267649069121094, -1.5820641173576078, -1.4167307027710978, -1.122774643941075], [1.4071495436170902, 0.278215286925923, -1.1821021994258052, 1.2985728593339911, 0.5448964241427297, -0.38941686226819977], [-0.5847591646488234, -1.091125578412613, 0.4510653129387943, -0.7590249811600082, -0.5993860665570032, -0.14030802849360402], [-1.7030237026226698, -1.156332286285877, -0.7738103213346553, 1.3808767729537512, -0.7628549937998219, -0.8631892704282953], [1.9138631623864897, 0.6694555341655076, -0.9633744075912606, 1.1613996699677245, 1.1987721331140053, 2.5638032839287597], [-0.3401387969670443, -0.4390584996799782, -0.6863192046008376, -0.5669825160472349, 0.05448964241427279, 0.04710562682279742], [-0.7769608821130783, -1.2432745634502287, -0.49675511834423375, -0.7315903432867578, -0.926323921042641, -0.8061503318537384], [0.4286680728899757, 0.8216045192031232, 0.5385564296726122, -0.7864596190332616, 2.0161167693281, 0.667549591317468], [0.044264637961465694, -0.41732293038888785, 0.3198286378380674, -0.45724396455422156, -0.5993860665570032, -0.21015162674816357], [0.5160324899191825, 0.6477199648744196, -1.3425025801044714, 0.6401415503759111, -1.0897928482854597, 0.68151831096838], [1.4071495436170902, 1.256315905024881, -0.3801002960324751, 1.2711382214607378, 1.3622410603568245, 1.8222970824595193], [-0.4100303305904098, 0.017388455432870226, 1.5738679776894569, -0.7315903432867578, 0.8718342786283672, -0.7374707935700882], [-1.1613643170415875, -1.2432745634502287, -0.6571554990228983, 0.9967918427282043, -0.27244821207136505, -0.5197915790100442]], [[-1.8245002660075094, -0.5601816385261812, 0.3123853153615982, -0.8070905866800077, 1.19003508739057, -0.8088923374627667], [1.2494691679196437, 1.0265030557035613, -0.9857858500592918, 2.234408422237264, 0.34802912933120456, 1.7136013102073087], [-0.03517477461707555, 1.5404995059469995, 0.37420298990545015, -0.4095090168869002, -1.1675815951756532, 0.25347778316805597], [0.19422592940733652, 0.043205498716115266, -0.3923361744383134, -0.5685416448041432, -0.6623780203400341, 0.7274778489519039], [-1.3656988579586802, -0.6048769820256107, 1.0047432702527397, -0.29023454594896814, -0.4939768287281609, -0.6996054590246678], [-0.1269350562268414, 0.8253740099561294, 0.7327455022597912, 1.8964640879131225, -0.15717444550441478, 1.0439014853598882], [0.19422592940733652, -1.4317408367650541, -0.8003328264277361, -0.5884207232938006, 0.34802912933120456, -0.2446670580846743], [-0.1269350562268414, -0.8507013712724725, 1.8949177836842066, -0.8866069006386311, 1.0216338957786968, 0.4263035444190032], [-1.8703804068123924, -1.4764361802644836, -0.9610587802417523, -0.5884207232938006, -0.9991804035637802, -1.3629513955908035], [1.7082705759684729, -0.35905259277874946, -1.2083294784171599, 0.6639612215544896, -1.3359827867875265, -1.1748763024647726], [0.9741883230903462, 1.048850727453276, -0.9734223151505227, 1.2404544977544953, -0.6623780203400341, -0.9639272115261164], [0.6071471966512828, -1.4317408367650541, -1.2083294784171599, 0.24650057327172703, -0.3255756371162877, -1.346431286059463], [-0.2875155490439316, 0.6465926359584118, -0.083247801719054, -0.6281788802731093, 2.0320410454499354, 0.2458531172305142], [0.5383269854439584, 0.40076824671155, 1.6105564807824884, -0.5089044093351771, 1.5268374706143166, 1.6221053189568073], [0.17128585900489504, 1.1829367579515642, 0.6832913626247096, -1.0058813715765613, -0.6623780203400341, 0.5686306419197833]], [[-1.0838491954156009, -0.1251941382824641, -1.7248346700394317, -0.3625354848511001, -0.6066512587195739, -1.003988537703141], [-0.461368238589072, -1.1728714007514969, -0.6790890991322914, -0.6781355721098699, -0.9780703967111498, -0.7124790605558621], [-1.230315302904196, -0.5403115441664204, 1.0250888682719368, 0.22011083008816731, 1.9932827072214572, 0.5365269299905557], [0.27096229885390327, 0.6062031958940307, -1.473081106672898, 0.09872618114248652, -1.3494895347027256, 0.141867945545009], [-0.3515186579726257, 0.9224831241865692, -0.13685065495821885, 0.948418723762251, 0.507606155255154, -0.22139771059236926], [-1.2669318297763448, 1.3573680255888092, 1.9933718042970663, -0.5567509231641891, -0.6066512587195739, -0.19112557258092105], [0.8568267288082795, -1.0740339231600786, -0.09811933751721363, -1.1151203083143226, 0.3218965862593658, -0.30436579254967167], [0.30757882572605205, -0.7775214903858242, -0.5047981706477682, -0.046935397592330085, 0.3218965862593658, -1.3212853916749867], [1.6257737931234035, -1.2321738873063477, -0.7565517340143019, 0.46288012797952854, 0.13618701726357768, 0.9065197279082559], [-0.27828560422832815, -0.44147406657500204, 0.8507979397874132, -0.920904870001231, -0.4209416897237859, -0.5555124190150196], [1.1497589437854696, 1.2782980435156746, -0.11748499623771624, 0.36577240882298157, -1.9066182416900896, 0.504012411385667], [-1.41339793726494, -0.876358967977242, 1.3543050665204808, -1.649212763675315, 0.13618701726357768, -0.88962712743767], [1.699006846867701, 2.0887653597653033, 0.8507979397874132, 0.9241417939731155, 1.4361540002340938, 2.7475141951229936], [-0.4247517117169232, 0.09224831241865615, -0.4467011944862623, 2.647803809001781, 1.0647348622425175, -0.6732374001706515], [0.6005110407032421, -0.10542664276418041, -0.13685065495821885, -0.33825855506196395, -0.04952255173221003, 1.036577802327811]]], "salaries": [[114206.96676160331, 53562.81535830792, 94001.69141781935, 139593.00564618097, 108512.49308548309, 51403.24662870189, 260000.0, 70511.21550258012, 124622.65950160817, 209313.11820212114, 116330.77416412425, 168166.17231246224, 260000.0, 81576.47307892329, 109466.33892719058], [132784.39872863106, 260000.0, 192326.2724628231, 238204.32528813224, 83589.2262618443, 240828.24818655138, 138017.82827354356, 209432.78329239303, 103882.31002833718, 102883.22731636351, 94020.36507477192, 103657.62715749753, 187001.6758705159, 260000.0, 210552.2199922933], [122437.34907260776, 121249.01149539863, 204877.4264268977, 199134.03884959314, 166806.15167009376, 132581.6526894422, 144588.43821949407, 70544.50214128845, 257152.27960556003, 116139.34504348955, 220404.04327920746, 77076.45566004737, 260000.0, 165004.30313500462, 260000.0]], "x_prev_mask": 28095}, "solution": {"id": "84f7faa0-39c1-4e86-8a43-356ce973cef1", "objective": 3.0371901588567045, "masks": [26551, 8181, 12023], "rosters": [[0, 1, 2, 4, 5, 7, 8, 9, 10, 13, 14], [0, 2, 4, 5, 6, 7, 8, 9, 10, 11, 12], [0, 1, 2, 4, 5, 6, 7, 9, 10, 11, 13]], "per_season": [{"Q": 6.155817903851618, "p": 0.8165158188467072, "W": 35.92669602925512, "cost": 1133507.7926284631, "revenue": 41838791.46332507, "profit": 40705283.67069661, "reward": 1.2462675369865266}, {"Q": 1.8343700412763617, "p": 0.5634193128632875, "W": 24.79044976598465, "cost": 1588423.9626532723, "revenue": 35848085.167047665, "profit": 34259661.20439439, "reward": 0.9269137375683683}, {"Q": 5.00714987835791, "p": 0.7794037603667626, "W": 34.29376545613756, "cost": 1541708.678832972, "revenue": 42120236.16690911, "profit": 40578527.48807614, "reward": 1.1811114297020322}]}}
{"instance": {"id": "17ee1531-14e7-46e8-b797-b3b866e97654", "n_players": 15, "T": 3, "K": 6, "L": 11, "U": 12, "gamma": 0.9, "lambda_win": 0.6, "beta": 0.25, "churn_penalty": 0.01, "G": [44, 44, 44], "C": [1555699.0957870744, 1602370.0686606867, 1650441.1707205072], "R_base": [20613904.707430743, 21026182.801579356, 21446706.457610946], "rho": [724513.0055427613, 731758.135598189, 739075.7169541708], "Q_opp": [1.0707051285621565, -0.16770996789685755, 0.26044665689115104], "w": [-0.33959796984152363, -0.8167530703694058, 0.22246030227961683, -0.38838110964708944, -0.04779077705953071, 0.12237323704688732], "abilities": [[[-1.46830368441922, -0.9139947770430541, 0.6228436625233926, -0.8961057103458318, 0.5445219630216063, -1.0622048646877111], [0.36352586384073654, -0.7872857044400429, -1.752027856450695, 1.4869642564105139, -0.40522564689980056, -0.19226233263009088], [1.5989457917369858, -1.015362035125463, -1.696016735720174, 0.764010446270948, -0.5951751688840816, -0.0900527961533611], [0.008520137433767878, 0.47980502159006794, 1.8214816461565404, -1.0032099785146564, -0.40522564689980056, -0.659174078807879], [-1.354701851968991, 1.721553933099577, -0.7662321315935265, -0.8961057103458318, -0.21527612491551912, -1.2840460177224315], [0.7753325064728186, 1.594844860496566, 0.25317026570195444, -0.8425535762614196, -1.7348723007897695, 1.7288123643302615], [0.06532105365888287, 0.15036143282223946, 1.1493481973902893, -0.28025616837509076, 0.9244210069901684, 0.20844550923890648], [0.9457352551481636, 0.04899417473983049, -0.12770535526558796, 0.12138483725800113, -0.02532660293123809, 0.981985864846884], [-0.5452887957611032, 0.45446320706946636, 1.362190456166269, -0.8961057103458318, -1.7348723007897695, -0.5534801263148972], [-0.5594890248173819, 0.15036143282223946, 0.7124614556922262, -0.4409125706283277, 1.4942695729430127, 0.051646788507559695], [-0.445887192367152, 0.3277541344664552, -0.16131202770390057, 1.2192035859884522, -1.1650237348369255, -0.8496554876963299], [0.8179331936416548, 1.4174521588523503, 0.21956359326364183, 2.397350535845522, 1.1143705289744499, 1.9320699652783038], [1.641546478905822, -1.218096551290283, -0.6542098901324847, 0.22848910542682574, 0.7344714850058869, 1.2944218343041602], [-0.2328837565229708, -1.116729293207872, -0.4189631830642968, -0.3338083024595031, 0.16462291905304335, -0.45940089387608907], [-1.6103059749820077, -1.294121994852087, -0.5645920969636511, -0.6283450399237706, 1.3043200509587312, -1.0471057286172851]], [[1.390549432801789, -1.0187548701614157, -1.258567317576745, 0.7482693562024197, 0.19253647013414601, 0.021205607960429612], [-0.9461865286557654, 0.3890341777585207, 1.6826064644740408, -1.0837972663944984, -0.6568891333988498, -0.6562104468353389], [-0.5056543392006532, 0.43444672769142195, 1.6706504734900944, -0.915331370063747, 0.7021918322539435, 0.12115223899587085], [-0.5439614861097934, -0.4510979960001537, -0.12274817410184793, 0.36922108945823, -0.3171188919856515, -0.7799538947839804], [0.33710289280043326, 1.2064600765507414, -0.5412078585399679, -0.05194365136864779, -2.1858552197582424, -0.6855598543616193], [-0.1608900170183905, 0.9112785019868817, 1.2043668251161896, -1.315437873849281, 1.0419620736671413, -0.1477517921232925], [0.8350958026192571, -1.5637054693562302, -0.7444597052670547, -1.315437873849281, -0.3171188919856515, 0.31311322876235326], [-1.808097334111422, 0.11655887816111091, 0.7739511496941222, -0.8310984218983717, 1.5516174357869392, -0.9782607023939829], [-1.022800822474046, -1.17769879492657, -1.1629193897051746, 0.47451227466494955, -1.3364296162252465, -0.7291873520358197], [0.011492144072740811, -1.17769879492657, 0.05659169065734614, 0.9377934895745149, 0.5323067115473442, 0.22268532449219214], [-0.6971900737463546, 0.9339847769533348, -1.0314034888817654, 0.5376869857889789, 1.0419620736671413, -0.07001552354017153], [-0.6397293533826441, -0.6554544706982067, -1.1270514167533359, 1.1694340970292956, -0.826774254105449, -0.3056040109808545], [0.5477922008007049, -0.40568544606725, 0.8576430865817471, -1.315437873849281, 0.5323067115473442, -0.6165490853133384], [1.3330887124380788, 2.069298525275865, 0.33157948328811093, 0.916735252533171, 0.8720769529605429, 3.1782499851116692], [1.869388769166043, 0.3890341777585207, -0.589031822475753, 1.674831786021551, -0.826774254105449, 1.1126862770458832]], [[-0.4689972422420007, 0.2772314477191516, 1.7594911936801305, -1.2152674030091617, -1.3260704884652867, -0.6541505863977559], [1.62619695951302, 0.19305185833074542, -0.6259953161387434, 1.7461965208990051, -0.20318822000677758, 1.8356212754266872], [0.3721391161268039, -0.008979156201429465, -0.5090597029123279, -1.0952080547426146, -1.005246983191427, -0.26892272699054975], [0.21920523278702123, -0.9181187215962154, -1.2574476275613864, -0.5749508789209096, -0.04277646736984753, 0.9925406322978018], [0.3262589511248691, -0.6319081176756348, -0.9768021558179896, -0.21477283412126763, 0.11763528526708214, -0.6525717836952674], [-0.0713691455585658, 0.24355961196378914, -0.2985755991047802, 0.865761300277658, 1.0801058010886617, -0.9020226106884583], [0.03568457277928205, -0.3793693495104181, 2.028443104100886, -0.6950102271874568, 0.11763528526708214, 0.7430898053046108], [-0.5454641839118912, 1.2368787667469814, -0.08809149529723263, 0.04535575378958482, 1.4009293063625217, -0.752036353952046], [-1.340720377278761, -0.3288615958773744, -0.15825286323308194, -0.014673920343688888, -1.005246983191427, -0.8309764890764736], [0.9532878728179762, 0.7486371482942259, 0.9643290237405058, 0.18542499343388819, 0.11763528526708214, 0.14472358106145036], [-1.8912823573019777, 0.007856761676251775, 1.1865066888706952, -1.1152179461203724, -0.5240117252806373, -1.5003888349316188], [1.8403043961887156, -0.3793693495104181, 0.1574732924782399, 0.22544477618940595, -1.3260704884652867, 1.7566811403022597], [-1.2795468239428478, -2.2649921518107137, -1.2223669435934619, 0.9057810830331738, -0.5240117252806373, 0.5299514404686566], [-0.20900964056437019, 2.4322289360623484, -0.7663180520104418, 2.0663547829431312, 2.202988069547171, -1.0456936566149164], [0.43331266946271696, -0.22784608861128558, -0.19333354720100657, -1.1152179461203724, 0.9196940484517316, 0.6041551674856184]]], "salaries": [[55443.35359137997, 146532.8494281716, 161430.3292927674, 60565.206942442106, 30000.0, 241075.12816882564, 152665.03675110036, 210120.85584430484, 30000.0, 131988.87113819335, 73901.17004334908, 256995.5385714933, 260000.0, 104739.1771535475, 35852.90740903629], [203034.49966683198, 39739.35452033592, 154156.21993241028, 116069.68444074654, 92391.98869616186, 146899.43760740757, 174529.87724168316, 79324.54111889002, 109447.72926894882, 205521.09550868135, 117427.91610890246, 99643.32323575714, 87995.69073408857, 260000.0, 260000.0], [35038.577155742496, 234716.58119135254, 74184.76694312933, 195604.54598595813, 63685.47236521241, 96946.65085053303, 173726.01550097563, 133535.65456763195, 68350.24097595818, 158744.70829678976, 30000.0, 201132.3224348366, 135680.20803770662, 106621.75835194811, 152066.57495213096]], "x_prev_mask": 26591}, "solution": {"id": "17ee1531-14e7-46e8-b797-b3b866e97654", "objective": 3.4529218975246425, "masks": [29647, 7151, 23933], "rosters": [[0, 1, 2, 3, 6, 7, 8, 9, 12, 13, 14], [0, 1, 2, 3, 5, 6, 7, 8, 9, 11, 12], [0, 2, 3, 4, 5, 6, 8, 10, 11, 12, 14]], "per_season": [{"Q": 4.611685100007715, "p": 0.7079079322300739, "W": 31.14794901812325, "cost": 1349338.5875509435, "revenue": 43180998.86704392, "profit": 41831660.279492974, "reward": 1.206462109800304}, {"Q": 5.838485356469183, "p": 0.8178053652424254, "W": 35.98343607066672, "cost": 1416361.4532757816, "revenue": 47357354.89306706, "profit": 45940993.43979128, "reward": 1.324660086431903}, {"Q": 6.21661077924415, "p": 0.815934292891009, "W": 35.9011088872044, "cost": 1226415.3752021831, "revenue": 47980344.247871295, "profit": 46753928.87266911, "reward": 1.301562604858797}]}}
{"instance": {"id": "9b02e7b1-5d98-41b6-9860-b1ef30ca8ca5", "n_players": 15, "T": 3, "K": 6, "L": 11, "U": 12, "gamma": 0.9, "lambda_win": 0.6, "beta": 0.25, "churn_penalty": 0.01, "G": [44, 44, 44], "C": [1440029.5888045817, 1483230.476468719, 1527727.3907627806], "R_base": [19307863.186058823, 19694020.44978, 20087900.8587756], "rho": [585500.3772912206, 591355.3810641328, 597268.9348747741], "Q_opp": [-0.2950691509253827, -0.9257188493465003, -0.6110362363812548], "w": [0.18852228537857915, -0.5107041450349129, 0.13722722269509557, 0.3606458942316902, -0.7408427337126091, 0.07678473450448602], "abilities": [[[1.5675996411131965, 1.211462820360977, -0.33050053767750887, 0.9999964375804518, -1.7556770377965236, 0.8675134157948605], [0.20140191788442993, 0.9120518571538911, 0.07637917393411106, -0.3133629389653028, -1.5846695341150439, 0.283389515553339], [0.4323085753315436, 0.8659886320451087, 0.04425709143845681, 1.7373209998517525, 0.8094355174256695, 1.1155382954468063], [0.8556374473179227, 1.0502415324802383, -1.1014305175732102, -1.0276461086656254, -1.5846695341150439, 0.9677357141031978], [-0.010262518108759564, -0.28559199567445065, 2.217851340311059, 1.6451554295678399, 0.8094355174256695, 1.9152919890183868], [1.1635129905807438, -1.8978048744818343, -1.3262850950427898, -0.3824871166782373, -0.7296320157076461, -0.45866043050738065], [-0.5875291617265491, -0.28559199567445065, 0.9329680404848901, -0.5668182572460624, 0.6384280137441898, -0.3867838327306943], [-2.5117513071191797, 1.1423679826978033, -0.8979906617674003, -1.0967702863785598, -0.38761700834468715, -1.6876490178439614], [-0.08723140392446484, -1.8978048744818343, -1.3369924558746746, 0.40092023073501976, -0.21660950466320786, -0.4667592020878523], [-0.3566225042794333, 0.8199254069363263, 1.4790434429110124, -0.981563323523669, 1.1514505247886289, 1.39494591497308], [-1.4149446842453808, -0.4928765086639716, -0.4482815068282411, -0.4746526869621497, 0.8094355174256695, -0.7218705068727109], [1.1250285476728912, -0.5159081212183628, -0.2127195685267769, 1.7373209998517525, 0.1254055026997515, -0.1822898503237838], [-0.2604113970098017, 0.29019831818532904, -0.10564596020792939, -0.6129010423880187, 0.4674205100627101, -1.0923893066792913], [0.1629174749765773, -0.9535087597517952, -0.030694434384737332, -0.2672801538233465, 1.4934655321515875, -0.7826112937262487], [-0.27965361846372805, 0.036850580087025686, 1.0400416488037376, -0.7972321829558439, -0.04560200098172817, -0.7654014041177463]], [[1.1136568337529693, 1.5288386147495694, 0.5024313384361311, 1.7950038680981435, 1.9017724233196964, 1.7849164359593814], [0.4829244164672505, -1.0389019158143797, -1.14243316239644, -0.5779724496755797, -1.244542247613625, -0.8841431060890228], [-1.1990286962946708, -0.06493136973839893, 2.356642230283757, -0.8129205999502059, -1.244542247613625, -0.6895146629338328], [-0.9314452465370934, 0.6212751513605849, -0.5891605575709388, -0.9538894901149816, -1.244542247613625, -0.9627254821986301], [0.7505078662248269, 1.8830097224135613, 0.06878524276208965, 1.2311283074390404, 1.2725094891330324, 1.7474527450234059], [1.5532582154975627, -0.4855095600893909, 0.8912174931783752, -0.7189413398403555, 0.2237379321552585, 0.03782919035974124], [-2.0973445633379706, -0.4855095600893909, -1.366732867055427, -0.4370035595108043, -0.40552500203140596, -0.8603856435442578], [0.6740554520083759, -0.24201692357039553, -1.5162660034947517, 1.6540349779333678, 0.2237379321552585, -0.6886009143744187], [1.0372044195365182, 1.2189388955435754, 0.08373855640602212, 0.5027890415876975, -0.8250336248225155, 0.3539861919169983], [0.6358292449001526, 0.9754462590245799, 0.9659840613980376, 1.0431697872193402, 1.6920181119241424, 2.0215773128476173], [-0.9696714536453189, -1.0389019158143797, -0.5443006166391413, 0.2913357063405365, 0.43349224355081345, -0.44919879180794087], [-0.1095817937102449, -0.5961880312343888, 0.21831837920141445, -1.517765050774084, 0.6432465549463684, -0.34503145603474056], [0.3491326915884612, -1.1938517754173767, 0.7416843567390508, -0.6954465248128928, -0.40552500203140596, -0.5862610757200465], [-0.7020880038877403, -1.3266659407913741, 0.17345843826961702, -0.8364154149776686, -0.40552500203140596, 0.1895114512224715], [-0.5874093825630637, 0.24496834946759452, -0.8433668895177907, 0.032892741038447935, -0.6152793134269605, -0.669412194626724]], [[-0.33448107236889657, 1.0588213976449108, -0.6931561105544387, 0.9381606289767528, 1.33396504147824, 0.20945465565128094], [0.3121291152654882, 1.2961661692216027, -0.14310319701769048, 0.26804589399335915, -2.091080335290215, -0.6628359317479716], [-1.0289883109391609, 0.3467870829148325, 1.3326485222272426, -0.6174628629489858, 1.874761679915365, -1.0776235950860182], [0.15646369972387705, -0.3059110389210684, -1.270040873532004, 1.321083334681553, -1.370018150707382, -0.8359451462576172], [0.03672107238417618, -0.563034541462485, -1.135881626327919, -0.6892608702686351, -0.6489559661245495, -0.6504709878544256], [0.8150481500922305, 0.20833596616176422, -0.11627134757687348, -0.8807222231210341, -0.6489559661245495, 0.24092905828939828], [0.5875371581468002, 0.20833596616176422, -0.008943949813605422, -1.3115102670389316, 0.4326373107496996, -0.15924548953809387], [-0.32250680963492645, -0.5234770795330363, 2.1510199301721618, -0.9285875613341339, -0.6489559661245495, -0.16374183277211063], [1.7610149060758675, -1.0575028155805932, -0.11627134757687348, -0.6892608702686351, -0.46869041997884126, 0.9041396853068713], [-1.807315388647216, 0.9203702808918404, -0.9078109060809746, 0.6031032614850571, 0.4326373107496996, -1.3608932188290745], [-0.1788156568272854, -0.5432558104977607, 0.3935337917986494, -0.9285875613341339, 0.25237176460399124, 0.4601257909477156], [1.3419157103869144, 0.4456807377384543, -0.07602357341564796, 1.5604100257470517, 1.1536994953325326, 2.748764497062249], [0.9108422519639913, 1.7312982504455383, 0.31303824347619835, 0.43557457773920566, -0.10815932768742499, 0.6624612364784701], [-0.40632664877271707, -2.1848904805698806, -1.2834567982524123, 1.7518713785994506, 0.07210621845828333, 0.6163737183297983], [-1.8432381768491264, -1.037724084615869, 1.5607192424741883, -0.8328568849079344, 0.4326373107496996, -0.9314924399804734]]], "salaries": [[229130.8491831153, 159064.3124907127, 229130.8491831153, 210187.50028160904, 229130.8491831153, 141935.8729119544, 110213.44320599367, 30000.0, 158665.9325780555, 229130.8491831153, 102893.34624373417, 163820.1538308853, 73893.38717572358, 154471.15104544253, 109645.7223586353], [260000.0, 105139.0622000546, 32876.590950862665, 50157.58701105086, 260000.0, 173207.32140030252, 77513.43778675357, 126394.7410091326, 249051.45625556816, 260000.0, 80393.59936234204, 139648.34443162664, 107745.87482470548, 129191.791747823, 30000.0], [114041.55794101213, 109653.63848640386, 68311.8041554847, 126747.4805240789, 90208.19803067864, 125164.7336922327, 152984.70250699477, 108421.9221364932, 224693.21338344348, 48533.003482228196, 139188.02007387453, 260000.0, 221573.26770909186, 199388.41951110584, 73338.08276384448]], "x_prev_mask": 32235}, "solution": {"id": "9b02e7b1-5d98-41b6-9860-b1ef30ca8ca5", "objective": 3.0483437483640543, "masks": [32227, 30190, 30650], "rosters": [[0, 1, 5, 6, 7, 8, 10, 11, 12, 13, 14], [1, 2, 3, 5, 6, 7, 8, 10, 12, 13, 14], [1, 3, 4, 5, 7, 8, 9, 10, 12, 13, 14]], "per_season": [{"Q": 0.6846100238204849, "p": 0.5609256965639364, "W": 24.680730648813203, "cost": 1433734.1710242527, "revenue": 33758440.292761944, "profit": 32324706.121737693, "reward": 0.9962246777677486}, {"Q": 4.006123955328319, "p": 0.7743363460867652, "W": 34.070799227817666, "cost": 1161671.4625485954, "revenue": 39841970.91030568, "profit": 38680299.44775708, "reward": 1.2102270596698954}, {"Q": 4.083854263837078, "p": 0.7638172384253197, "W": 33.60795849071407, "cost": 1466909.9797934757, "revenue": 40160890.42984001, "profit": 38693980.45004654, "reward": 1.1887836011029622}]}}
{"instance": {"id": "b45ddee8-0003-4d5b-8a00-4424060ce798", "n_players": 15, "T": 3, "K": 6, "L": 11, "U": 12, "gamma": 0.9, "lambda_win": 0.6, "beta": 0.25, "churn_penalty": 0.01, "G": [44, 44, 44], "C": [1609836.3307870037, 1658131.420710614, 1707875.363331932], "R_base": [19871530.570817344, 20268961.18223369, 20674340.405878365], "rho": [620519.0449150637, 626724.2353642143, 632991.4777178564], "Q_opp": [0.2465563972833194, -0.3498162480469332, 0.6137152334984521], "w": [0.6899693215668873, -0.6223019108666259, 0.31524201887840303, 0.15238029352060314, 0.07440265873594247, 0.09246419004707447], "abilities": [[[-0.5332752137857996, -0.20701178622926403, 0.7124957453666633, 1.3944306620740903, 0.08253605548901681, 0.05025972101179143], [-1.8574348766665434, -2.100659447339948, 1.3135829456234416, -0.2086597711318476, -0.10116296466329126, -0.42296658595243575], [0.8419443553806044, 0.4551461623817477, 0.4447649037814388, -1.699553300491645, 1.26161898119811, -0.8843416389109618], [-1.0549188534248881, 1.1540538358307584, -0.25658979189510983, -0.41598846171380915, 1.3586358440453723, -0.2922475640350641], [0.03417380955828043, 0.7399077360587156, -0.05555864932180681, 0.5554324999391638, 0.11543512258318461, -0.45438815080205297], [-0.047644660562014114, 1.0603716220921096, -1.6064350575240338, 1.7744874118715186, 0.7280548455522782, 1.6080606098526073], [0.3731428500195002, -0.540267785217775, -0.3453007047984766, 0.8993393595670234, 1.33872357251934, -1.7231047011639637], [0.5477533765868654, 0.841691870731029, -0.014655062822222011, -0.06675143070596422, -0.27673127602218056, -1.257552095943451], [0.39319015581693423, 0.7672213151842607, -0.4502243828124492, -0.08738213804359977, -0.6411093996516426, 1.2553507563417448], [2.2389955057677056, -1.7931270660391034, -1.7004053075756413, 0.4025760804111868, -1.2990745276471782, 1.7953307482216814], [1.0196037595888818, -0.9256661841284581, 0.5579293442424473, -1.9706389218437796, 1.1085517092676698, 0.15436640397026985], [-0.8863440738401873, 0.5266467235745764, -0.8495161504230694, -0.3726420795248957, -2.0597963812539546, -0.40862994383459555], [-0.14409417299993818, 0.8071463723555208, 2.362693853839849, -0.27188968440863676, 0.0017136693924205229, 0.13605455219113533], [0.42050673188765625, 0.07369057800446799, 0.14891701452583003, 0.8737838251434257, -0.45164067813847064, 1.0883134380330082], [-1.3455986933270583, -0.8591439472586382, -0.26169870020686214, -0.8065440511422312, -1.1657545726706755, -0.644505548979713]], [[-0.08081921779443979, 0.20126922959390536, 0.534861037713326, 1.4552440858866038, -0.09048626303986096, 0.39235908389645274], [-2.044724712754783, -2.1609460604942647, 1.3816684223929445, -0.4779436917779891, 0.3550838628802644, -0.22279224133466785], [1.360117720530511, 0.19875168699206158, 0.15522824895431764, -1.3721670972926112, 1.1515475871638892, -1.334073482518226], [-1.3549937712608848, 0.7925538939655299, -0.5983414638955915, -0.19423164430468365, 1.5331344794133566, -1.4040717403990925], [0.2869961692914493, 0.9358362105483703, 0.09423909642456614, 0.49726904226187735, -0.32678850608014465, -0.8397341115665738], [0.07943215283126595, 1.6463623702617471, -1.2953689348643063, 1.767943355460937, -0.08145280627005058, 0.35990941380546443], [0.4257303419145919, -0.5584715620427648, -0.027737728876460168, 1.2854917987673098, 1.0598648140621085, -1.11461592198155], [0.11820588158315157, 1.0055116163484343, 0.14766977630023445, -0.14578846703965775, 0.04899255694724511, -0.16699217547669296], [0.08367913240143766, 0.6719195614280855, -0.6228548685760855, 0.31569759635567657, -0.3786238428371417, 1.5921837945833497], [1.704051279659603, -1.5795762836992842, -1.3675667753885563, -0.38597699058189855, -1.9585568820939554, 0.8023288430846024], [0.7718446954903327, -1.046607269486648, 0.04567296331516761, -2.149049641867327, 1.4469903754815483, 1.1271552252454076], [-0.804773236477966, 0.18213841311579348, -0.44107329864053363, -0.41025800840971255, -1.7991813567202453, -0.9859511888032397], [0.4215098532882542, 0.3918824161515188, 2.7222863330909837, -0.3955713188934818, -0.7669480353912972, 1.1134451253512918], [0.5278249205263833, 0.015090136037640754, 0.1752043873875955, 0.590913549938293, 0.0315564590651381, 1.3522072164065229], [-1.4940812092289066, -0.6957143587201253, -0.9038871953376016, -0.3815725685033362, -0.22513244258085388, -0.6713578402930485]], [[-1.0668007835464426, -0.14052924177891127, 0.8191694226140961, 1.1319541620373699, -0.09561371591510284, 1.4623870702270036], [-1.888122064810088, -2.1058007870938913, 2.1239390112961924, -0.19593850571436916, -0.026971682116347026, -0.29037750175563654], [1.0466150109116372, 0.0011527240945778826, -0.16188936240767682, -1.1891399273762178, 1.063577519225817, -1.3669534621877892], [-1.040593593251168, 1.233722327225701, -0.11263550764104768, -0.3573658178161875, 1.1878199252845105, -2.1605158869315586], [0.447421607700174, 0.6296495881819583, 0.30915366672615896, 0.5058506988367121, -0.33648159348455353, -0.6089304551565551], [-0.3518486151937001, 1.6479571382623084, -1.1044955038307902, 1.6965863313867753, -0.2656153200719322, 0.5981787301847173], [0.5377615677650865, 0.058636532647634035, -0.3606579633550942, 1.7785288638055528, 1.7119809190285706, -1.2248690858325628], [0.20158708258016755, 0.6502332630031297, -0.30026371942243446, -0.011917385150535021, 0.295404566758502, 0.1903018872140745], [0.25143336716604403, 1.1461660631173727, -0.8778103638423744, 0.06509672652401677, -0.44095696940543117, 0.8800609132179245], [2.1960487188691213, -1.1081121106558733, -1.2020742230896837, -0.283952311795176, -1.3787767564274485, 0.9616350640095538], [0.8072532189271739, -1.523741793794439, 0.17714933530269394, -2.20053196325706, 1.5567665269067743, 0.30097320191227467], [-0.6452622978122506, -0.03590527864369233, -0.9503504034406858, -0.4260950704068985, -2.0498502846108866, -0.5283564034060931], [0.23007679816567175, 0.4408398260202568, 1.9090145195828165, -0.5771285526709639, -0.5286025707814394, 0.5127766085012372], [0.4101488688671783, -0.33216755890703553, 0.7063618275896095, 0.4775785771320617, -0.4006673128295698, 1.282020766176026], [-1.1357188863386045, -0.5621006916790958, -0.9746107360817808, -0.4135258255350807, -0.29201325156146346, -0.008331446172615753]]], "salaries": [[180668.42164153236, 30000.0, 37768.082418348975, 137918.93100631045, 52183.01129281597, 260000.0, 30000.0, 31862.438172779985, 260000.0, 260000.0, 164276.92872414918, 30000.0, 180299.16492799326, 260000.0, 30000.0], [155480.4879804008, 30000.0, 30000.0, 30000.0, 89848.50676018266, 206691.08658441584, 75366.67049330781, 158159.17895456098, 260000.0, 139494.83110939618, 260000.0, 30000.0, 260000.0, 260000.0, 30000.0], [260000.0, 64659.926336398625, 30000.0, 30000.0, 83621.00037371049, 190965.16076281102, 87246.21515890393, 166180.10957411912, 221089.18059498374, 201699.12324197366, 144893.65497031627, 30000.0, 231696.77979605913, 258479.53092734257, 99465.60146652906]], "x_prev_mask": 23807}, "solution": {"id": "b45ddee8-0003-4d5b-8a00-4424060ce798", "objective": 3.2443560792022215, "masks": [30423, 30423, 30423], "rosters": [[0, 1, 2, 4, 6, 7, 9, 10, 12, 13, 14], [0, 1, 2, 4, 6, 7, 9, 10, 12, 13, 14], [0, 1, 2, 4, 6, 7, 9, 10, 12, 13, 14]], "per_season": [{"Q": 3.990082816006157, "p": 0.7182670106003057, "W": 31.603748466413453, "cost": 1257058.0471776198, "revenue": 39482258.38493213, "profit": 38225200.33775451, "reward": 1.1504067309050163}, {"Q": 4.228352136883047, "p": 0.7585125970082046, "W": 33.374554268361, "cost": 1488349.6752978484, "revenue": 41185603.18669371, "profit": 39697253.511395864, "reward": 1.2385172880768534}, {"Q": 4.756254853367491, "p": 0.7380068803463606, "W": 32.472302735239865, "cost": 1627941.941845353, "revenue": 41229031.29915944, "profit": 39601089.35731409, "reward": 1.208992332133379}]}}
{"instance": {"id": "9d3f5064-e8aa-4975-ae40-73744dbc0919", "n_players": 15, "T": 3, "K": 6, "L": 11, "U": 12, "gamma": 0.9, "lambda_win": 0.6, "beta": 0.25, "churn_penalty": 0.01, "G": [44, 44, 44], "C": [1605291.7503510986, 1653450.5028616316, 1703054.0179474803], "R_base": [19116844.466168556, 19499181.35549193, 19889164.982601766], "rho": [569801.9427157479, 575499.9621429053, 581254.9617643344], "Q_opp": [0.19362597310525573, -0.6789866340574844, -0.2526128482601518], "w": [-0.23919170331652526, -0.3394072593269775, -0.38623894434558304, 0.03581979071205852, -0.4521389474512521, 0.6875295143066465], "abilities": [[[-0.06446630649680245, -0.26843897269567185, -0.634715693872759, -1.2123671970124033, -1.1077867164198594, -0.5656253616082466], [-0.8732254243657949, -0.9055567876379339, 0.37081652168769497, -0.7263402583437336, 0.7573643877564341, -0.9552142586343347], [-0.5391727452459937, 0.8019189564073288, 0.6890229190169525, -1.1313627072342918, -0.4295499512648435, -0.8397805113673457], [2.5200465266932346, -0.1155306971095288, -0.7365417410181213, 1.1367630065528334, -1.4469050989973675, 0.14230816655258494], [-0.4688458654312987, 1.4645214839472813, -0.35469406422301225, 0.022951272103798853, 0.58780519646768, -0.26712090578501696], [-0.8556437044121211, 0.03737757847661426, 0.06533838025160778, -0.8275958705663752, -0.7686683338423513, -0.7604198101212907], [-0.4336824255239512, 1.1841896453726866, 2.8146416531763916, 1.2987719861090568, 1.774719535488958, 2.272421534088743], [0.7970379712332093, 0.29222470445351933, 0.090794892037947, -0.6655868910101499, 0.07912762260141847, 1.258768940900495], [-0.22270178607986618, -1.007495638028696, -0.4947048790478857, 0.4279737209943567, -0.7686683338423513, -0.4519952666423042], [-0.4688458654312987, -0.2939236852933624, 0.6890229190169525, -1.0301070950116522, -0.4295499512648435, -0.5061048356737053], [-1.7347297020958077, -1.2623427640056004, -1.0038351147746978, -0.3820711767867593, 1.605160344200204, -0.6016984076291807], [1.306907849889748, 0.26673999185582603, -0.38015057600935287, 1.2987719861090568, 1.0964827703339424, 2.058688736414709], [0.7618745313258618, -1.1349192010171478, -1.2074872090654225, 0.97475402699661, 0.4182460051789263, 0.12517346969264126], [0.46298529211340805, 2.1016392988895443, -0.9656503470951868, 1.6835433125550865, -1.4469050989973675, -0.7324631994550668], [-0.1875383461725187, -1.1604039136148383, 1.0581423399188912, -0.868098115455431, 0.07912762260141847, -0.17693829073268175]], [[0.9647187908504911, -0.2768397249988316, 0.1652062203938976, -0.6233413697014871, 0.1281845828732609, -0.014792954600426567], [-1.2227249791012018, -1.016343099995712, 0.42711852101837094, -1.060440500894603, -0.3962068925173537, -1.5497526252529286], [0.7483781982179057, 0.0834311499996483, 0.12491202029782476, 1.049037914863478, -0.7458012094444306, 1.298272397045678], [0.41184838745610913, 0.7281263999969285, 0.5077069212105166, -0.8513930903239822, 1.176967533654491, 0.47474708939306887], [0.41184838745610913, -0.7508803499968316, 0.6487366215467693, -0.6613499898052364, 1.876156167508644, -1.2237738576404373], [-0.9342708555910882, -0.011376974999951276, -0.701119081671667, 0.6309430937222364, 1.176967533654491, -1.7064511907368278], [0.6281889800886944, -0.7129570999969936, -1.2853849830647228, 0.9920249847078542, -1.4449898432985837, 0.1087358415474648], [-0.6938924193326601, -1.642076724993072, -1.1846494828245406, -0.7373672300127349, -1.619787001762122, -1.0830882842497833], [-0.9102330119652454, 1.6382843999930885, 0.32638302077818887, -0.6993586099089856, 0.47777889980033783, 0.8521961887338481], [2.0704595976392604, -0.7129570999969936, 0.08461782020175249, 0.022805172062249385, -1.4449898432985837, 0.21968300105066352], [1.108945852605548, 0.4057787749982887, -1.24509078296865, 0.25085689268474454, 0.6525760582638763, 1.814119499478076], [0.05128073306846697, -1.111151224995312, 1.897856824525028, -1.2314792913614745, -0.22140973405381564, -0.44714374111804633], [-1.7034818516180568, 0.48162527499796665, -1.4264146834009774, 2.2273051380797035, 0.30298174133679934, 0.3237674496567572], [-0.11698417231243269, 1.9795936499916489, 1.797121324284846, -0.6613499898052364, 0.47777889980033783, 0.08814770885614957], [-0.8140816374618741, 0.9177426499961288, -0.13700028032664807, 1.3531068756934714, -0.3962068925173537, 0.845333477836743]], [[-2.107859121453985, 0.2978962193003857, -0.3164697066110367, 0.9200276772680107, 1.542599223538804, -1.1075006297749277], [1.4846763512332781, 0.1081981551232515, -0.3164697066110367, 1.748526014430456, 0.5187501813670315, 2.1560627470764584], [-0.4098945945619947, -0.4608960374081435, -0.8988210254677773, -0.5002551864390381, 0.31398037293267683, -1.1116806661205587], [-0.6779942567028354, 0.5508269715365609, -0.8988210254677773, 0.16254348329091797, -0.7098686692390955, -0.9538842940729892], [1.3238165539487736, -0.14473259711292197, 1.1482320953619771, -0.5949407106861747, 0.10921056449832219, -0.1450472611933949], [-0.3205280405150478, 1.5414724177949155, 0.9894090084010483, -0.9026686644893688, 0.7235199898013853, 1.6544583856007413], [-0.23116148646810086, -0.2501204105446619, 0.3541166605573313, -1.3997676667868357, 0.5187501813670315, -0.5829060683982399], [0.412277702669917, -1.5569292970982354, -0.7047039191821971, -0.9500114266129369, -0.9146384776734503, 0.3001266096163043], [-0.3562746621338265, -1.19861073143032, 0.47764572819360923, 1.5828263469979669, 0.10921056449832219, 0.1809955737658214], [0.1620513513384656, 1.963023671521874, -0.4399987742473151, -0.14518447051227587, -0.9146384776734503, 0.45792298166387374], [-0.9997138512718444, 0.9091455372044743, -0.5988218612082442, -0.8316545213040163, -1.324178094542159, -1.2893322108098753], [0.1620513513384656, -1.4936966090391919, -1.5870544022984707, 0.6359711045265984, 0.10921056449832219, 0.0284242471502907], [0.9663503377609859, 0.12927571780960181, 0.33646965089500386, -0.5475979485626065, -0.7098686692390955, 1.2291396874327891], [-0.9997138512718444, -0.9246024165077968, 2.612933897334991, -0.7132976159950956, -1.5289479029765138, -0.5515557958060076], [1.5919162160896143, 0.5297494088502129, -0.15764661965010732, 1.5354835848743984, 2.156908648841867, -0.26522330613028555]]], "salaries": [[130343.69170795644, 86837.53480343112, 51024.30311068168, 165773.1824801691, 124791.31542216687, 56598.01103209427, 260000.0, 260000.0, 73958.02355115577, 131838.72634057817, 89350.24162966707, 260000.0, 207105.68447990998, 102868.5630204219, 145349.19596318202], [182529.47592461586, 80546.49114119822, 230355.00524139978, 183529.2860178725, 126935.01491857864, 66940.36701796594, 192456.604341306, 78583.40218213515, 229024.2646593469, 196221.51438343961, 230355.00524139978, 125259.25783582726, 187987.58772909417, 199392.49131236546, 230355.00524139978], [44931.360423056125, 260000.0, 106191.63448999706, 30000.0, 184552.5400293774, 260000.0, 148200.31616870168, 194046.9810512844, 161238.1026157235, 205521.64527858957, 82297.60785611413, 186090.5015007144, 260000.0, 91440.20428370654, 189848.3519610402]], "x_prev_mask": 30527}, "solution": {"id": "9d3f5064-e8aa-4975-ae40-73744dbc0919", "objective": 2.7390906099903924, "masks": [16299, 7931, 16271], "rosters": [[0, 1, 3, 5, 7, 8, 9, 10, 11, 12, 13], [0, 1, 3, 4, 5, 6, 7, 9, 10, 11, 12], [0, 1, 2, 3, 7, 8, 9, 10, 11, 12, 13]], "per_season": [{"Q": 2.2669167681309075, "p": 0.6267554736138566, "W": 27.577240839009693, "cost": 1564673.6590453838, "revenue": 34830409.870976344, "profit": 33265736.21193096, "reward": 1.0221040632768006}, {"Q": -0.1200786557524367, "p": 0.5348750264969772, "W": 23.534501165866995, "cost": 1651344.006733433, "revenue": 33043285.885500547, "profit": 31391941.878767114, "reward": 0.9248893199673025}, {"Q": 3.216367402848608, "p": 0.7041721297020042, "W": 30.983573706888183, "cost": 1621758.037499186, "revenue": 37898520.93292149, "profit": 36276762.8954223, "reward": 1.0920816774605184}]}}
{"instance": {"id": "1d361dab-a94d-4a64-a058-966dd0c13310", "n_players": 15, "T": 3, "K": 6, "L": 11, "U": 12, "gamma": 0.9, "lambda_win": 0.6, "beta": 0.25, "churn_penalty": 0.01, "G": [44, 44, 44], "C": [1545943.2008810414, 1592321.4969074726, 1640091.1418146966], "R_base": [21403694.226391166, 21831768.11091899, 22268403.47313737], "rho": [641909.3666504319, 648328.4603169363, 654811.7449201056], "Q_opp": [-0.3398119718850497, -0.2549610422162425, -0.458259269784356], "w": [0.015202910890601551, 0.02630075232184515, 0.18436123075491812, -0.8358622537875152, -0.5150416915093454, -0.03397684720077875], "abilities": [[[0.5422697907828022, 0.0183424545135932, 0.07088099851636527, 0.7999237688326511, 0.8503420808380424, -0.17959607251880574], [0.45517613592796874, -1.2555633241381883, 1.2426930520532349, 0.05720775064749317, 0.031938626501412395, 0.2285379176753301], [-0.5691683953369778, -0.9320688302811061, -0.4141674583639448, 1.6166993567589492, 1.107638005154391, -0.5252391411439785], [-0.11612873810447998, -1.3290262096328782, 0.643151784739749, 0.15597714872300905, -0.7754190638315953, -1.113740752675132], [0.2892777408192056, 1.7924637179342882, -1.1998958293211035, 1.4208208018714148, -0.19383118220875756, 0.2726724709430272], [-2.1400784449888355, -0.3556654493776263, 2.2996399828978045, -0.9185039896750957, 0.7915421532899718, 0.8924776959732024], [0.9356597058951212, -0.2553418469740546, -1.7322138752778573, -0.8555237516259825, 1.5159984603679202, 0.19840887769792706], [-0.6621800139649676, -1.2457305190736292, 0.00239195734403284, -0.10477263848751509, -1.4027984738030985, 1.581541429813834], [1.3280087981542061, -0.7494269042766564, -0.00202901291543661, -1.1450353851019883, 0.1470250853257707, -0.9522105506627753], [-0.4712186236577051, 0.3334284771309296, 0.8148487579342479, -0.847450718255209, -1.0113188691254735, -1.4074036326410089], [-0.39372297077916957, 1.1415330617649901, -0.8169737902251867, 2.016558691968065, -1.6146399579821955, -0.04973253437636068], [1.9063814334551437, 0.3272571211345175, -0.07870788967927074, -0.4084550067361739, -0.3785716931266504, 1.117814330035467], [0.5016088695763438, 1.864976323179118, 0.34244383639889336, -0.39217841584990193, 0.12069020133070155, 1.419579106223956], [-1.4616357500382298, 0.4993977931009542, -1.291399770749794, -1.2991780795793832, 1.7055179451070208, 0.42746885995310513], [-0.1442495377404262, 0.14542413499574777, 0.11933725664826542, -0.0960895334903323, -0.89411331783746, -1.9105780042977858]], [[0.46227117309937354, 0.6038700728980072, 0.11412852335948395, 0.8662833694100066, 0.6739167133087118, 1.003947145695725], [-0.28254065533889466, -0.9265915329570601, 1.3301068251447383, -0.6358037507516495, 0.36885428210358057, 0.06461883114152153], [-1.0006792738635562, -1.1623853567594087, -0.20950616530921393, 1.1051125957871646, 1.0197205289624993, -1.4588653983150444], [-0.2960623912241992, -0.8020692340896405, -0.1868103250503262, 0.2770155268813625, -0.3982854711996669, -0.6836442262709154], [-0.4136979992930147, 1.6088186509295066, -0.9950814413693797, 0.9861713282044946, -0.5168116509691094, -0.5219880416737402], [-1.8011428653372379, -0.9732437011017604, 2.2919120344569786, 0.1996144514026187, 0.8194322874262978, 0.8857369276830453], [1.441647154441205, -0.37683309365065076, -1.6813811187463408, -0.8620991299452914, 1.6925729724021308, -1.1858457024046576], [-0.38635898347354375, -1.1456298805404785, 0.001966895995094401, 0.8989382588170269, -1.1839630010933837, 1.259280404337837], [1.1299959324630326, -1.1665522812991753, 0.19390187858238658, -1.7677378174860896, 0.2531679075723898, -1.2147146249168792], [-0.3838981759216766, 0.5758664702440816, 1.0596615795508402, -1.0462461957841849, -1.1341761628889233, -1.0976541797022834], [-0.03837907417775393, 0.9150800236458029, -1.0717212561043852, 2.1153094377480124, -1.6263182942305787, -0.6916609196374811], [2.1027148311185417, 0.2647003867278317, 0.0006072965006594895, -0.5675904771619129, -0.3379204847915815, 0.7805097448803783], [0.7311598429568287, 1.9226606373663875, 0.2242110648559788, -0.37123600687608865, -0.04573930118330883, 1.6137975656766363], [-1.262072910056779, 0.7029661435560791, -1.2893171711951565, -0.8358180998573114, 1.5876665740675422, 0.934745441417902], [-0.002956605392325467, -0.04065730496952217, 0.21732137932864237, -0.36191349038815723, -1.1721168994865996, 0.31173703208795583]], [[0.7119976852333896, 0.5551225813931701, -0.3395685788482179, 0.649770097712627, 0.38879849178478576, 0.8127150170868622], [0.3580834292378292, -1.3154618623992491, 1.191908211373216, -0.3601390560184902, 0.896950757476453, 0.4960441233138345], [0.2181266871943454, -0.9447373911467088, 0.10030557344772738, 0.7194096950222915, 0.5690581801690433, -0.6392759695396673], [-0.2980408767359459, -0.6803279465830439, 0.362864662036001, 0.3923881652801604, -0.6482964234582679, 0.09273642532946183], [-0.00494245775975042, 0.8860792191580884, -1.011906446145521, 1.07934171017142, -0.7352796327070168, -0.50724352907232], [-2.1773791128152125, -0.8406097230948324, 2.547255444222106, 0.3633497652389868, 0.7944068206433564, 0.2443716854646451], [0.9481418887330555, 0.10349071719086242, -1.7738306645017052, -0.8281646816349871, 2.039620188138194, -0.9785416536472354], [-0.5903590784354844, -1.4519664562531078, -0.2317580493752575, 0.7785461539952977, -1.0677233473872556, 0.22867267844804026], [0.8868852153212008, -1.2391048248974823, 0.44895971903347326, -1.6779765667933633, -0.44881937799734906, -0.04488942333443318], [-0.8146213889743358, 1.1085143062152156, 0.9965359707370177, -0.9680413419933903, -0.47838090272654216, -2.09492821421197], [-0.2456792493249942, 0.9355838268603835, -0.6744011627346138, 2.187398701751075, -1.742962085097181, 0.03457530570409717], [2.0022499188003517, 0.513562282484715, -0.3293230478965791, -0.39172030649069506, -0.2997397856632855, 1.8649516522471739], [0.6239986484795605, 1.8857078921927246, -0.3116551777179129, 0.10016313178752798, 0.4550107537227134, 1.0331415971233038], [-1.523831085067809, 0.6997878279891829, -0.8611409056904163, -1.4677265314430745, 1.3684854080343087, 1.0065069547773362], [-0.09463022388620071, -0.2156404491099192, -0.11424554793931743, -0.5765989365853861, -1.0911290449319564, -1.54883664968913]]], "salaries": [[158086.05099050613, 196741.19669822825, 82968.37550139069, 30000.0, 185699.45419158557, 200234.52273025227, 187148.6678516221, 229726.3783746583, 44069.01733035878, 30000.0, 114785.39498892541, 260000.0, 260000.0, 111630.64059450288, 30000.0], [247568.35037619114, 152633.16847756295, 30000.0, 41181.60530393237, 120950.15018331943, 199644.2250176598, 30000.0, 236327.2528555263, 30000.0, 30000.0, 38987.58412001745, 222877.0438719663, 260000.0, 231923.06133792063, 140768.4017675165], [249115.40052143778, 181026.59258066837, 123130.69759131833, 174800.78913885413, 44674.13054625977, 227219.2977565132, 66668.75011930257, 114277.5916158066, 64088.9661775971, 30000.0, 81165.65724321842, 260000.0, 260000.0, 196318.31313209044, 30000.0]], "x_prev_mask": 26495}, "solution": {"id": "1d361dab-a94d-4a64-a058-966dd0c13310", "objective": 3.220067220604931, "masks": [32682, 31722, 31722], "rosters": [[1, 3, 5, 7, 8, 9, 10, 11, 12, 13, 14], [1, 3, 5, 6, 7, 8, 9, 11, 12, 13, 14], [1, 3, 5, 6, 7, 8, 9, 11, 12, 13, 14]], "per_season": [{"Q": 4.74319156607657, "p": 0.7808712598573739, "W": 34.358335433724456, "cost": 1507187.150716926, "revenue": 43458631.563816324, "profit": 41951444.4130994, "reward": 1.1825265632828266}, {"Q": 4.314015466931598, "p": 0.7580914251799945, "W": 33.356022707919756, "cost": 1575354.7586320848, "revenue": 43457426.95544137, "profit": 41882072.196809284, "reward": 1.202215006315581}, {"Q": 3.3887683648070555, "p": 0.7234734295770646, "W": 31.832830901390842, "cost": 1604400.3005208324, "revenue": 43112915.021423765, "profit": 41508514.720902935, "reward": 1.1796878415284957}]}}
{"instance": {"id": "cef85846-28c0-4afb-907e-9b30c898406a", "n_players": 15, "T": 3, "K": 6, "L": 11, "U": 12, "gamma": 0.9, "lambda_win": 0.6, "beta": 0.25, "churn_penalty": 0.01, "G": [44, 44, 44], "C": [1547433.7254942092, 1593856.7372590355, 1641672.4393768064], "R_base": [22362468.62174248, 22809717.99417733, 23265912.354060877], "rho": [696001.0098336311, 702961.0199319674, 709990.6301312872], "Q_opp": [0.08565355799002695, 0.37401695686440484, 0.6611626188758025], "w": [0.0038825023759125198, -0.25267652725382317, -0.13974026816642215, -0.6933530190341511, -0.36392155694730516, -0.5508492049318646], "abilities": [[[0.6864804223777042, 1.6085555234715325, 1.4046103452253187, 1.4926903622109495, 1.0832427320326123, 1.2017798215571023], [-1.9895412849153244, -1.0231790485690484, -0.06581922853997044, -1.1932015315762683, 1.2524994089127082, -1.2279878418380374], [0.8273236701299691, 0.2803904123482487, 0.7534201054149762, -0.5276707968325329, 0.06770267075203797, 0.42690654722680044], [-0.7063028053946909, -0.3590964930074064, -0.6119787845099353, -0.6940534805184669, 1.421756085792804, -0.6615156926332446], [0.6395326731269493, 1.7807250749134398, 1.4676287555295453, -1.3833531700744786, -1.455607421168823, 1.0360061992981746], [0.06051043236763995, 0.13281651111232812, -0.5909726477418598, 1.2312318592759104, -0.27081068300815336, -0.05336331840334998], [-1.2227280471529944, -1.8348355053666134, -0.6329849212780109, 0.09032202828664974, 0.40621602451222966, -1.0764233872013036], [0.18570443036965315, -0.5312660444493138, -2.2924697259559803, 0.6845458985935565, -0.27081068300815336, -0.5307913505090617], [1.5941369078923, -0.9493920979510908, -0.23386832268457508, -0.4325949775834278, 0.7447293782724206, 0.6817242865848092], [-0.44026555964041286, -0.2115225917714886, -0.14984377561227277, -1.2407394412008208, -1.455607421168823, -0.9106497649423759], [-0.7063028053946909, 0.5509425646141031, 0.6904016951107493, 0.44685635047079364, -0.947837390528536, -1.0669506087865077], [0.12310743136864655, -0.7034355958912211, -0.6960033315822376, 0.8271596274672115, -0.7785807136484405, -0.12346187867283939], [-0.5967580571429294, -0.6788399456852343, 1.0264998833999588, -1.074356757514887, -0.4400673598882488, -0.8443403160388048], [1.9227711526475846, 0.6247295152320633, 0.9214691995595808, 1.7066109555214353, -0.947837390528536, 2.203999777842505], [-0.3776685606394063, 1.3134077209996893, -0.9900892463352955, 0.06655307347437346, 1.5910127626728992, 0.9450675265161343]], [[-1.9902636111012952, 0.13200241993485423, 0.8788279435873755, 0.4351532639120812, -1.8415034370383763, -1.1094258768368264], [0.5952590466768785, 1.1967389203528012, 2.4859733846905585, -1.8147869074515217, 0.0312119226616676, 1.2716992772688527], [1.1573291896721343, -2.1095481072608173, -0.26913308577204104, 0.2868055603056897, 1.201659022474195, 1.5477313501686913], [-0.014988537146540273, 1.4395735607989995, 0.11352059068109782, 0.509327115715277, -0.20287749730083757, -0.3454583215382829], [-1.1873062639652157, -1.0261320191162417, -0.26913308577204104, 0.26208094303795776, 0.49939076258667897, -0.5043858786624325], [-0.657354414855404, -0.8953749050298273, 1.1849508847498862, -1.3202945620968838, 0.0312119226616676, -0.04990882934249602], [-1.3800160272778748, 0.2814391217478993, -1.1683692254369171, 0.8554717574635232, 0.2653013426241733, -1.173554540237799], [0.5149633119632705, 0.8418267535468177, -0.21173503430407017, 0.38570402937661735, 0.49939076258667897, 0.4463912613259008], [-0.1755800065737562, 0.6737104640071441, 1.0318894141686306, -0.9988745376163689, -1.373324597113365, -1.1191845864848005], [0.7397913691613728, 1.2340980958060626, 0.17091864214906868, 0.21263170850249152, -1.373324597113365, 1.384621488909696], [-0.737650149569012, -0.05479345733144999, -0.36479650488532767, -0.38075910592307155, 1.6698378623992065, -0.35521703118625697], [1.0770334549585263, -0.8766953173031967, -1.531890218067399, 0.38570402937661735, -0.9051457571883541, -0.5322679062280726], [0.033188903681624506, -1.0074524313896112, -0.8813789680970631, -0.0840636987102888, 0.7334801825491841, -0.9281926976601645], [1.71939933266739, 0.6363512885538828, -0.7283174975158093, 2.413122645330633, 1.201659022474195, 1.8028519023943], [0.3061944017078916, -0.4657443873173233, -0.44132724017595526, -1.1472222412227604, -0.4369669172633433, -0.3356996118903088]], [[0.14527576019307625, -1.1804238805485454, -0.7960939326857076, -1.1202807730396012, 0.00956335912084881, 0.17216106241298249], [-2.563920848812915, -0.004238505854753707, 1.1091308685282029, -0.5712795419335462, 1.5875176140608662, -1.5320031630126485], [-0.5614711812867479, -0.19497126931861053, 0.10401227261220368, -1.5738035291706902, 1.013716066809951, -0.7123713518896331], [-0.34552072694569047, -0.81485275057615, 1.2291450292345922, -0.9531934418334129, 0.15301374593357778, -0.5637280349299036], [0.6164403878462902, 1.1083692810177554, -0.031003658182483105, 0.4789836827910785, 0.00956335912084881, 0.08841834863285321], [0.9894457180717529, 0.7586925480006815, 1.7242034421484438, 0.12093940163495566, 0.2964641327463064, 1.7433837297126582], [1.0090775775573035, 1.4739404109901502, 0.26903174358348714, 1.0757241513846187, -0.7076885749427954, 0.40559387707509287], [1.4802422052105195, -0.5446480023356841, -0.15101781888887136, -0.04614792957123251, -1.8552916694446262, -1.2095937149591507], [-1.5430641555642812, -2.0387213161359083, -1.8162142986900067, 1.7918127136968651, 0.15301374593357778, 0.045500207820536945], [-0.18846585106128513, 0.7904813419113246, 0.6740795359675474, -0.5235403044460631, -0.2773374145046088, 0.5238804602895255], [-0.1295702726046331, -1.132740689682581, -1.5461824371006336, 0.4789836827910785, 0.726815293184493, -0.10000275737243769], [0.6949678257884928, -0.7035919718888997, -1.1711381848931706, 1.0995937701283605, -1.138039735380982, -0.7196988393453945], [0.20417133864972828, 0.9335309145092185, 0.8541007770271294, 1.0279849138971364, 1.730968000873595, 1.9987990067420527], [0.5575448093896381, 0.7904813419113246, 0.08901050252390348, -1.597673147914434, -0.13388702769188016, 1.005401064525269], [-0.36515258643124116, 0.7586925480006815, -0.5410638411846328, 0.3118963515848904, -1.5683908958191686, -1.1457398957018021]]], "salaries": [[260000.0, 43502.95866300707, 201276.16792153256, 109890.846247082, 225446.11428616135, 112884.95451271758, 59834.049624802996, 136868.41550128578, 260000.0, 96639.42998037892, 92972.01880011435, 175213.39769819463, 82769.96595076687, 260000.0, 231854.7105537692], [53729.46326641189, 194668.01015969052, 199177.78399316585, 109199.22600499912, 101716.82597147094, 102428.34200139825, 73075.89287259497, 161768.75641229525, 81387.3900445412, 232882.99118923463, 113163.44528917491, 79531.90932942678, 107348.57420817965, 260000.0, 118255.43164206672], [172866.53728188673, 54353.178840346336, 110583.7714450017, 137311.8986635339, 209082.4093535641, 260000.0, 233335.42870511155, 113229.90808431865, 196722.76639077047, 206549.7380903888, 185196.398645429, 115160.13717673635, 260000.0, 260000.0, 74394.42450453679]], "x_prev_mask": 24318}, "solution": {"id": "cef85846-28c0-4afb-907e-9b30c898406a", "objective": 3.392098018975318, "masks": [8158, 23931, 28559], "rosters": [[1, 2, 3, 4, 6, 7, 8, 9, 10, 11, 12], [0, 1, 3, 4, 5, 6, 8, 10, 11, 12, 14], [0, 1, 2, 3, 7, 8, 9, 10, 11, 13, 14]], "per_season": [{"Q": 7.039996318814428, "p": 0.8505073327305558, "W": 37.42232264014446, "cost": 1484413.3646733265, "revenue": 48408442.96960298, "profit": 46924029.604929656, "reward": 1.3196398128906355}, {"Q": 5.688882210986873, "p": 0.7906282187174903, "W": 34.78764162356958, "cost": 1134504.510789955, "revenue": 47264074.03090956, "profit": 46129569.52011961, "reward": 1.2233228293234943}, {"Q": 6.154523509567966, "p": 0.7979192807679956, "W": 35.10844835379181, "cost": 1626368.7591229486, "revenue": 48192581.72370127, "profit": 46566212.96457832, "reward": 1.199342789745108}]}}
{"instance": {"id": "8a78b62b-3f84-4ad3-b53d-b82e72e846a6", "n_players": 15, "T": 3, "K": 6, "L": 11, "U": 12, "gamma": 0.9, "lambda_win": 0.6, "beta": 0.25, "churn_penalty": 0.01, "G": [44, 44, 44], "C": [1602171.1431321157, 1650236.2774260791, 1699743.3657488616], "R_base": [21816387.37346634, 22252715.120935667, 22697769.42335438], "rho": [505511.4752065239, 510566.5899585891, 515672.25585817505], "Q_opp": [0.1894864474393221, 0.31536148087774685, -0.66939365356959], "w": [-0.0994581926383431, 0.004917883294515691, 0.011878577655887882, -0.12499949320203553, 0.6872581372071533, -0.708515461875973], "abilities": [[[-0.5581871302201671, 0.2969762612812048, 1.157922646686668, -1.1954493797155787, -0.9805806728063043, -0.9868348667454526], [0.8405184397050793, 0.7992155266832417, 0.5038076900247267, -0.7959799087710165, -0.09805806728063012, 1.7255750127782143], [-0.03367254149819885, -0.8821941879235763, -1.0131823158508344, 0.31365751051943147, 1.078638740086935, 0.13305638652747676], [-1.296392847680715, 1.6071656492865154, -0.2338113036578848, -1.0622928894007249, -0.9805806728063043, -1.6146946906719837], [-0.5970400627180906, -0.5764833307223365, 0.6151464060522921, 1.2013674459517942, 1.078638740086935, 0.33541297437134765], [0.8016655072071558, -0.4236279021217165, -0.9157609393267157, 1.0016327104795129, 0.4902903364031525, -0.016632048315934594], [0.9570772371988501, 0.6245236082825333, 0.002783467900689185, -0.8847509023142527, -0.6864064709644134, 1.4469882034863097], [-0.5581871302201671, 1.8036940574873144, 0.016700807404134724, -0.04142646365351021, 0.7844645382450435, -0.6195437997685637], [-1.5683633751661787, 0.9302344654837731, 2.507904578520884, -0.9291363990858708, -0.9805806728063043, -1.2002794867999467], [0.6462537772154615, -0.008734595920034454, -0.289480661671667, 0.9794399620937039, 2.549509749296392, 1.2335435834318158], [0.005180390999724725, -0.18342651432074294, 1.0048319121487672, -0.8181726571568256, 0.19611613456126087, -1.0436610318248958], [0.8793713722030029, -0.6856657797227793, -0.874008920816379, -0.3077394442832186, -0.6864064709644134, 0.5530156065048253], [-1.4323781114234475, -2.126874106528623, -1.2636944269128538, 1.5342586717389297, -0.09805806728063012, 0.3257109461870525], [2.0838122796386336, -0.8821941879235763, -0.05288589011309297, -0.7294016636135895, -0.9805806728063043, 0.6805279769269905], [-0.16965780524093135, -0.29260896332118574, -1.166273050388735, 1.7339934072112102, -0.6864064709644134, -0.9521847660872556]], [[0.4545423871602283, 0.3715195881993974, -0.29973399812455154, -0.6030431305429206, 0.46056618571426255, 0.5992460977067765], [-0.6412294390296064, 0.89830109385526, -0.7953571446297154, 1.6226996541107594, 0.9540299561224006, -0.07042053085443077], [-1.4664403204812095, 0.28834356099057773, -0.2525317936954883, 1.3658831789584143, 1.611981649999919, -0.8993488504488192], [-0.11363559679005633, 1.9241387627640445, 0.6207089882421815, -0.8313244417894522, 0.9540299561224006, 1.6363659049770705], [0.19750948965890908, -0.5434167110976265, -0.48854281584080445, -1.1737464086592495, -1.3488009724489116, -0.694994993882147], [-0.07305145507932172, -0.18298725985940462, 2.9690186585880776, -0.4318321471080218, 0.7895420326530218, 1.4617536895069563], [1.3609215520333, -1.042472874350548, -0.004720220442906458, 0.3956876061606551, -2.500216436734568, -0.8734448404614945], [1.0227203711105115, 1.231005202690541, 1.4703486679653197, 0.5954337535013673, -0.03289758469387592, 1.833044499325276], [1.4150337409809461, -0.6820434231123264, -0.07552352708650135, -1.1166760808476195, -0.36187343163263475, -0.6326334883571062], [0.8874398987413962, -1.8187824616328712, -0.9841659623459682, 0.22447662272575628, -0.5263613551020144, 0.4342279600097455], [-0.6277013917926948, 1.092378490675838, -0.4413406114117412, -0.7457189500720028, -0.6908492785713937, -1.0662858037004668], [-0.045995360605498636, -0.43251534148586585, 0.19588914838061242, -1.4305628838115976, 0.7895420326530218, -0.41772614624004256], [0.5898228595293422, -0.7374941079182066, -0.5121439180553361, 1.3373480150525978, 0.1315903387755037, 0.5560727477279022], [-0.654757486266518, -1.0701982167534883, -0.41773950919720954, -0.4318321471080218, -0.36187343163263475, -0.45514304955506707], [-2.3051792491697243, 0.704223697034679, -0.9841659623459682, 1.223207359429332, 0.1315903387755037, -1.4107131957541537]], [[0.1495156831278324, -0.869119023598145, -0.5851606176719223, -0.9929197438201315, -0.4881105190473616, -0.5596583105891829], [0.22015301373940718, 0.03358914100862435, -0.055869606712394194, -0.268471862062954, 1.2015028161165826, 1.533757881495924], [1.3680096361774956, 1.083249797528123, -0.7946716428434006, 2.480168630486337, -1.0513149641020094, 0.5071991814258209], [-0.30962696584740373, 1.461127633875143, 0.21980279482902643, 0.5412051822538915, -0.6758453340655773, -1.002945021983091], [0.7499329933262162, 0.2645144854429137, 1.9289716843858327, -1.0355343250999656, 2.3279117062258785, 1.5422418376948506], [-0.6628136189052777, 0.07557556726940201, 0.10953383421245819, -1.419065556618471, -0.30037570402914543, -0.8555362830267437], [-2.3581095535830716, -0.3442886953383956, -0.6954295782884894, -0.8224614187007955, 1.3892376311347987, -1.1991365090832657], [0.1318563504749387, 1.461127633875143, 2.4141551110987325, 0.37074685713455546, 0.4505635560437184, 1.6737431587782108], [0.8558889892435784, -1.6248746962921843, -0.596187513733578, 0.2642104039349705, 0.8260331860801503, 1.129709467522051], [0.5027023361857044, 0.24352127231252374, 0.7490938057885534, -1.3764509753386371, -1.4267845941384416, -0.2913531957981333], [0.2024936810865135, 0.32749412483408374, -1.0041826680148802, -0.05539895566378426, -0.6758453340655773, 0.40645220156356904], [-0.20367096993004158, 1.272188715701633, -0.26538063188387356, 0.4346687290543065, -0.30037570402914543, -0.5670817722632436], [0.3967463402683422, -0.6381936791638549, 0.36315244363056487, 1.031272866971982, -0.1126408890109297, -0.6073805642081443], [-2.040241565830985, -1.4149425649882843, -0.5741337216102643, 0.5198978916139745, -0.30037570402914543, -1.0008240329333595], [0.997163650466728, -1.3309697124667244, -1.2136936931863596, 0.3281322758547215, -0.8635801490837935, -0.709188038595262]]], "salaries": [[121269.13976238397, 260000.0, 180669.11364811595, 82497.34312554287, 185912.93980532145, 191524.3521450007, 260000.0, 108335.25200227009, 30000.0, 258424.89633968583, 95374.47328202236, 204620.54511772312, 207230.21221429127, 244292.65751133233, 97024.65127895841], [200200.1055657975, 126693.93862512097, 46204.848962959106, 260000.0, 96370.50114810812, 260000.0, 94477.51803393626, 260000.0, 144200.67635665738, 169337.8076354113, 62609.653382250275, 111390.40586025688, 217688.25070274237, 103236.93166123788, 40595.555067499125], [121853.55337010793, 260000.0, 206831.7040012951, 53054.834405202644, 260000.0, 81820.34886788235, 35656.780501540765, 260000.0, 259503.8758820058, 130265.78463916696, 195145.48859711376, 94598.0792867968, 106889.7326335659, 75185.68709544155, 96388.04957662399]], "x_prev_mask": 32189}, "solution": {"id": "8a78b62b-3f84-4ad3-b53d-b82e72e846a6", "objective": 2.9307956216243607, "masks": [22461, 27967, 31099], "rosters": [[0, 2, 3, 4, 5, 7, 8, 9, 10, 12, 14], [0, 1, 2, 3, 4, 5, 8, 10, 11, 13, 14], [0, 1, 3, 4, 5, 6, 8, 11, 12, 13, 14]], "per_season": [{"Q": 4.946042184840121, "p": 0.7665870279521448, "W": 33.72982922989437, "cost": 1558262.373603593, "revenue": 38867203.105934374, "profit": 37308940.732330784, "reward": 1.1140057237732188}, {"Q": 4.108871674906113, "p": 0.7207887728956003, "W": 31.714706007406413, "cost": 1451502.6166298874, "revenue": 38445184.41867634, "profit": 36993681.80204645, "reward": 1.037447072119822}, {"Q": 3.8498673673813446, "p": 0.7558048034919121, "W": 33.255411353644135, "cost": 1444950.941619168, "revenue": 39846662.41557962, "profit": 38401711.47396045, "reward": 1.0902315221522243}]}}
{"instance": {"id": "f06aeea1-b8db-43da-b19b-2159dd06d53c", "n_players": 15, "T": 3, "K": 6, "L": 11, "U": 12, "gamma": 0.9, "lambda_win": 0.6, "beta": 0.25, "churn_penalty": 0.01, "G": [44, 44, 44], "C": [1541634.6088064997, 1587883.6470706947, 1635520.1564828155], "R_base": [17845314.063484173, 18202220.344753858, 18566264.751648933], "rho": [673604.379373847, 680340.4231675855, 687143.8273992614], "Q_opp": [-0.09361967476680498, -1.1312192224601623, 0.48219244922360166], "w": [0.6844286019884386, 0.1658513748761436, -0.23441485991392122, -0.612064583141305, 0.0009325674817596923, -0.2729039372532972], "abilities": [[[-0.9467789929691517, -0.7994285130224116, 0.011837395866375283, -0.7934690769098147, 0.3366221130881126, -0.9749131442319505], [0.8765838054253231, 1.2562448061780773, 1.0217152307165227, 0.5350042067546803, 0.08415552827202828, -0.5083162002020193], [-0.35611217095403924, -1.0049958449424599, -1.0868209079815871, -0.49524038057696845, -0.16831105654405543, 0.08124276201932921], [0.44000398045763417, 6.339599583566669e-16, 0.3003739201092745, -1.4712615685753747, 0.08415552827202828, 1.1308114172960688], [-0.12498167538290825, 1.2105631768625083, -0.3987722732485208, 0.6434510054211696, 0.3366221130881126, 1.8619962754700317], [-0.53588033417603, 0.5024979224712316, 2.1869588863128464, -0.5765754795768357, 0.8415552827202811, 0.40621381009664603], [2.1863232803283985, -2.489648797698368, -0.9980404389837731, 0.7247861044210395, -0.16831105654405543, -1.2318159322390185], [0.645453309854195, -0.27408977589339995, -0.8093819423634149, 1.4839136950864666, -1.4306439806244757, -0.9222151364356289], [-0.22770634008118867, 0.6852244397334967, -0.887064852736503, 2.0532593880855377, -0.9257108109923077, 0.2799581664179588], [0.003424155489942301, -0.06852244397334904, -0.07694307313143996, -1.227256271575773, 1.3464884523524485, -0.18883452793681924], [0.4656851466322042, 0.9821550302846761, -0.5652356526194242, -0.30545848291061145, -1.68311056544056, 0.06257888425813196], [-0.6386049988743104, 0.13704488794669997, 1.9317150379441281, -0.7934690769098147, 2.1038882068007014, -0.2975241690167327], [1.3388447965675851, 1.0735182889158115, -0.47645518362160805, 0.9145680020873965, 0.8415552827202811, 2.143052317050414], [-1.845619809079104, -0.13704488794669809, -0.7871868251139611, -0.9290275752429294, -0.9257108109923077, -0.991381271668301], [-1.2806341532385632, -1.0735182889158097, 0.6333006788510813, 0.23677551042183362, -0.6732442261762235, -0.8508532508781099]], [[-0.18207541673750718, -0.6899077888705671, 0.7702591811129812, -0.5084033290491378, 2.5689267662874737, -0.8238930211156554], [-0.5932134545318798, -1.032577220428793, -0.4838941666964861, -0.6111802823609582, -0.6614601853315051, -0.3045374604023764], [-1.459540034170021, 0.3152558770335706, 0.9897360169796378, 1.0743617519528956, 0.2615075151310601, -0.68787132664313], [-0.31422692888569836, 1.1605071415438666, 0.4253670104653778, -0.3234048130878612, 0.030765590015419043, -0.38182251407994766], [-2.0321965868121823, 0.6807699373623449, -0.750401753105998, -1.104509658257698, -1.3536859606784293, -1.252567452180584], [-0.43169493968409056, 0.08680958932808566, 2.5574277017414717, -0.5495141103738659, 0.7229913653623432, 0.3570225990776338], [-0.03524040323951699, 1.1833517703144152, 0.7859360979605978, -0.2206278597760407, 0.49224944024670164, 1.441074285328367], [-0.5638464518322818, 0.7493038236739906, -0.5152480003917228, -0.837289579646963, -1.1229440355627878, -0.9609451829705485], [0.9045036831476186, 0.9092162250678324, 0.31562859253204756, -1.3511743462060668, -0.8922021104471467, 1.4266477419752204], [0.6695676615508344, -0.14163669837739992, -1.48721684494406, 1.4443587838754492, 0.49224944024670164, -0.6518049682602634], [-0.28485992618610034, -0.4386168723945312, 0.20589017459872083, -0.5495141103738659, -0.43071826021586357, -0.44983336131621043], [0.14096161295807125, 0.5665467935096022, -1.1423246742964566, 1.7115788624861819, 0.030765590015419043, -0.49929579566985605], [1.4771602357897804, -0.11879206960685389, -0.2644173308298294, 1.403248002550721, 0.9537332904779847, 2.436505776695485], [1.873614772234354, -2.8373028933021276, -1.0952939237536015, 1.1154725332776239, 0.2615075151310601, 0.213787632928535], [0.8310861763986236, -0.392927614853434, -0.3114480813726844, -0.6934018450104146, -1.3536859606784293, 0.13753304663333132]], [[0.1449111661191773, -0.333688298995223, 1.638175860077575, -0.9542704883662423, 0.6963730578084024, -0.7796005112551277], [-0.09932113632887858, -1.0912509237411363, 1.6553355234163765, -0.7942091444709485, -0.10713431658590734, -0.22409665258199665], [1.1951100666458148, -0.9018602675546585, -1.0902106107918497, 1.1722587948141225, -1.915025908973105, -0.4005786887062963], [0.38914346856723314, 0.9379346782568454, 0.24824312963466075, -0.4283546441388404, 1.4998804322027122, 0.18927402263532267], [0.9753009944425645, 1.1814369504966034, 0.5056380797166817, -0.15396376888976074, -0.10713431658590734, 2.2324385348126174], [-0.14816759681848973, -0.9289160755812983, -0.438143403917396, 0.6692088568574771, -1.1115185345787948, -0.5853518271988516], [-1.4670220300379913, -0.6583579953149005, -0.5239417206114029, -0.5884159880341365, -0.308011160184485, -0.43848087096117944], [0.7799151524841198, -0.333688298995223, -0.6612190273218144, 0.8292702007527736, 0.29461937061124754, 0.8099222570590342], [0.38914346856723314, -0.5771905712349811, -1.193168590824658, -0.4740864566803533, -0.7097648473816399, -1.0911090716624485], [-0.2458605177977121, -0.5230789551817016, -0.4724627305950005, 0.7606724819405037, -0.9106416909802175, -0.3306965401738555], [-2.8591461539919085, 0.2885952856174883, 1.5180582167059637, -0.4283546441388404, 1.9016341193998676, -1.3197066083872127], [-0.0016282153496562364, -0.9018602675546585, -1.7079584909887007, 2.041163233102874, -0.5088880037830626, -0.6268073390401301], [-0.36797666902174003, -0.03607441070218613, 0.36836077300627074, -1.388722707510618, 1.0981267450055578, -0.3922875863380406], [0.2914505475880108, 2.236613463535554, -0.19790811717417595, 1.149392888543366, 0.6963730578084024, 1.4056971843779786], [1.0241474549321756, 1.6413856869494792, 0.3512011096674674, -1.411588613781377, -0.5088880037830626, 1.5513836974201858]]], "salaries": [[92895.24304828426, 134650.21846260945, 148999.2662413435, 251787.72042832305, 260000.0, 148266.01656678738, 107819.24209764681, 128390.48167598338, 171006.88181990042, 145507.6309311708, 137492.3072964241, 156562.60557555684, 260000.0, 120834.67690029902, 103120.27119400764], [67335.24473030446, 118948.02300058835, 74164.92604290135, 100126.36856172381, 30000.0, 156418.56724093345, 260000.0, 73552.49131856009, 260000.0, 103711.06777580571, 93125.11326712878, 115899.27529416989, 260000.0, 134547.5351377489, 151781.73458393494], [105474.56010685214, 155706.71160936283, 132745.49329010418, 182539.30664904366, 260000.0, 90081.28314343966, 84419.98578037108, 241706.2343285877, 77768.63361368596, 120444.04894298184, 47737.295075500086, 122305.3622491779, 129046.37338570801, 260000.0, 241290.67463755756]], "x_prev_mask": 28647}, "solution": {"id": "f06aeea1-b8db-43da-b19b-2159dd06d53c", "objective": 3.2092037693216477, "masks": [28367, 26587, 21375], "rosters": [[0, 1, 2, 3, 6, 7, 9, 10, 11, 13, 14], [0, 1, 3, 4, 6, 7, 8, 9, 10, 13, 14], [0, 1, 2, 3, 4, 5, 6, 8, 9, 12, 14]], "per_season": [{"Q": 2.3522291286837076, "p": 0.6482742776684488, "W": 28.52406821741175, "cost": 1528059.6638516488, "revenue": 37059251.33229109, "profit": 35531191.66843944, "reward": 1.1553908226375456}, {"Q": 3.211991190696137, "p": 0.7475905007068757, "W": 32.89398203110253, "cost": 1393127.578375795, "revenue": 40581325.99946111, "profit": 39188198.42108531, "reward": 1.269728325984802}, {"Q": 3.0343525114860728, "p": 0.6543102691622876, "W": 28.789651843140657, "cost": 1579517.071159107, "revenue": 38348896.3086368, "profit": 36769379.23747769, "reward": 1.1247622880219517}]}}
{"instance": {"id": "12a0c487-e6c7-45b1-b5d2-e0b6db6141f0", "n_players": 15, "T": 3, "K": 6, "L": 11, "U": 12, "gamma": 0.9, "lambda_win": 0.6, "beta": 0.25, "churn_penalty": 0.01, "G": [44, 44, 44], "C": [1544430.8948975543, 1590763.8217444809, 1638486.7363968154], "R_base": [20873297.532830022, 21290763.483486623, 21716578.753156357], "rho": [583100.590212754, 588931.5961148816, 594820.9120760303], "Q_opp": [-0.605618306018126, 0.6932309830160776, -0.09514811051902022], "w": [0.25965912849963413, 0.50981917735687, -0.38066721610461796, 0.6646362083095487, -0.2608401903674496, -0.13407132042279193], "abilities": [[[1.2681521195946417, -0.9041056991412636, -1.2177482726356106, 1.1815292895506921, -2.0992479328171783, -0.5702182033335175], [0.48334285108322395, -1.640851792002857, -1.4812541019710717, 0.4998777763483672, 0.6117013843970589, 0.06855278765949815], [0.7636318755515882, 0.7603947328793732, -0.7645182461786175, -0.9945120795182603, 0.6117013843970589, 0.5810801875272049], [0.2777975664730902, -1.095113945438713, 0.46868903511134025, -1.073164177195454, -0.22243686705347543, -0.40944645053291046], [-0.5630695069320025, 0.6785340558947525, 1.174884657730376, -0.7585557864866869, 0.8202359472596926, 0.08797487860185335], [0.16568195668574448, -0.5220892065463629, -0.8382998783925477, 0.7096167034875461, -1.0565751185040102, -0.5065569052446864], [1.5671270790275635, 0.9241160868486163, 1.522712352453185, -0.6799036888094961, 1.0287705101223263, 2.7390902922333384], [-0.05854926288894692, -1.2588352994079561, -0.24804682068111392, 1.5485724120442508, 0.6117013843970589, 0.2260875253030459], [-0.35752422232186876, 0.323804455628059, 1.501631886106347, 0.5523125081331638, -0.22243686705347543, 0.663084571506038], [0.16568195668574448, 1.2515587947870994, -1.3126103711963766, 2.125354461676985, 0.1946322586717917, -0.8086783199035452], [1.0439209000199503, 0.10550931700240151, -0.7539780130051991, -0.9420773477334662, -1.0565751185040102, -0.14185319754934989], [-1.8337130845219194, 0.2965175632998488, 0.38436716972399176, -0.653686322917099, 1.8629087615728608, -1.4075261239594974], [-0.05854926288894692, 1.9883048876486957, -0.016161690865909132, -0.33907793220833454, 0.6117013843970589, 1.2230881936772797], [-2.13268804395484, -0.0036382523104272206, 0.5530109004986878, -0.18177373685395268, -0.6395059927787431, -1.2143842195882983], [-0.7312429216130211, -0.9041056991412636, 1.0273213933025176, -0.9945120795182603, -1.0565751185040102, -0.5302950163964539]], [[0.02342423608767527, 0.23246666244141392, 1.9112874377190645, -1.0516054251430986, 1.951754762989917, 1.0672307001367574], [0.5886612373337317, 1.4325380692006608, -1.061365692095618, 1.444293526937042, -1.2503428950404158, -0.9995845681703034], [-1.702840119069204, -0.3109618991099453, 0.8167540677454561, -0.752097550893482, 0.922509087194453, -1.3121865837879645], [-1.7486701461972627, 0.006038095128349002, -0.4892232487003236, 0.3660651796384214, 1.0368697178383934, -1.0279109644075024], [0.6955979672992021, 0.43625237302317293, 0.08291919469497076, -0.5124912514937882, -0.22109721924495157, 1.7217727846177502], [1.077514860033025, 1.7948237769015645, 0.12023283230770739, 0.6256386706547558, -0.9072610031085944, 0.5603905388925884], [0.52755453449632, -0.17510475872210346, -0.9121111416446718, 1.7438014011866572, -0.9072610031085944, 0.5270058576130323], [-1.320923226335381, -1.5563190193318022, -1.0986793297083548, -0.5923600179603528, 0.8081484565505124, -0.852894301941951], [0.909471427230143, -1.714819016450948, -1.2603717593635466, -0.4326224850272239, -0.4498184805328327, 0.3782922773677372], [1.1538982385797898, 0.7306095105301575, -0.8872353832361807, 0.9650809281376552, -0.564179111176773, -0.3925903630874661], [0.11508429034379279, 1.0702523614997559, 0.7545646717242285, -0.33278652694401817, 1.8373941323459764, 1.2847369569581075], [1.2302816171265543, -0.03924761833426411, -0.6011641615385335, 1.6239982514868125, -0.6785397418207135, 1.3545412905426337], [-1.0153897121483226, -0.03924761833426411, 1.762032887268118, -0.9917038502931754, -0.564179111176773, -0.901453838348578], [-0.5570894408677357, -0.401533326035169, -0.05389747655172989, -1.0316382335264596, -0.7929003724646538, -1.0309459354329167], [0.02342423608767527, -1.465747592406576, 0.9162571013794215, -1.071572616759742, -0.22109721924495157, -0.3764038509519238]], [[-0.7659186462870621, 2.154436025307252, 0.9002906212218256, 0.04661240031074706, 0.0, -0.8113341577699936], [-1.177702864720968, 0.24125995433183953, 1.747904663542374, -1.267009790264839, -1.657971280858828, -0.7823502701545003], [0.9841642820570353, -0.12754507139836088, 0.16760729650406353, 0.4491740393581042, 1.2895332184457557, 1.7392479523934161], [0.4076663762495695, 0.6100649800620368, -1.2833930132311142, -0.44069905748342186, -1.2895332184457553, 0.3190374592342447], [-1.3012381302511384, 0.7944674929271369, -1.297759352931461, 2.716231690835326, 0.18421903120653665, 0.9545360321369125], [0.5517908527014366, 1.1632725186573394, 0.32563703320789433, -0.546636330916937, -1.4737522496522915, 0.6324928364092092], [-0.10706389679281277, -1.0034570075075864, -1.6138188263391233, -0.20763705592968892, 0.0, -0.7812767928354081], [0.160595845189226, -1.0495576357238614, 1.1445183961277465, -0.7161359684105608, 0.7368761248261457, -0.8585671598100568], [0.510612430858046, -0.7038029241017985, 0.18197363620441023, -0.5042614215435309, 1.8421903120653649, -0.49787878059502916], [-1.5688978722331772, 0.2873605825481139, 0.7278945448176461, -0.906823060590888, 0.7368761248261457, -1.11190780711585], [0.7165045400749989, 0.24125995433183953, 0.9864886594239154, 1.0847976799591943, -0.7368761248261457, -0.14899865189001732], [1.725375875238066, 0.3565115248725265, -0.2633828945063848, -1.161072516831324, 0.18421903120653665, 2.1707858346685383], [-0.6423833807568903, 0.19515932611556447, -0.7805711237189229, 0.9364854971522731, 1.1053141872392191, -0.9508862092519984], [-0.9923999664257103, -1.4644632896703362, 0.2681716744065012, -0.016949963749364066, -0.5526570936196091, -0.5740956702505856], [1.4988945550994175, -1.6949664307517114, -1.2115613147293716, 0.5339238581049163, -0.36843806241307286, 0.7011953848311192]]], "salaries": [[126934.96397985259, 189727.29226941115, 175707.84691223636, 121748.87831235185, 124413.0514772187, 155518.97948011087, 260000.0, 192794.34775972617, 208657.32707723492, 119066.84499656138, 158848.33773215135, 47984.53511537149, 260000.0, 52896.90079563222, 103858.172818058], [256844.48923075214, 90525.51454095186, 70297.71404041915, 55734.399177067215, 260000.0, 260000.0, 240921.22815495174, 111065.24382420629, 208307.8130759872, 164448.03111884135, 260000.0, 260000.0, 65940.31291028443, 39860.22430508048, 118762.90266342674], [95374.0558001505, 30000.0, 260000.0, 137220.54843555094, 213751.6104160299, 179218.52824372626, 96976.32302937548, 76409.76371379737, 121754.43141885372, 36570.63398129544, 133232.1533660871, 260000.0, 81028.26715951801, 65288.9034999259, 220040.64793598026]], "x_prev_mask": 28351}, "solution": {"id": "12a0c487-e6c7-45b1-b5d2-e0b6db6141f0", "objective": 2.9602800896186503, "masks": [28583, 15342, 30077], "rosters": [[0, 1, 2, 5, 7, 8, 9, 10, 11, 13, 14], [1, 2, 3, 5, 6, 7, 8, 9, 11, 12, 13], [0, 2, 3, 4, 5, 6, 8, 10, 12, 13, 14]], "per_season": [{"Q": 2.575703784719971, "p": 0.6889747496253129, "W": 30.314888983513768, "cost": 1531995.5489363465, "revenue": 38549927.19135101, "profit": 37017931.64241467, "reward": 1.092768340029988}, {"Q": 4.3748660002438235, "p": 0.7151253848871308, "W": 31.465516935033758, "cost": 1567100.4811477896, "revenue": 39821800.59461589, "profit": 38254700.1134681, "reward": 1.0877850159174702}, {"Q": 4.19960644405468, "p": 0.7452977597852193, "W": 32.79310143054965, "cost": 1603885.4693051982, "revenue": 41222601.25587767, "profit": 39618715.78657248, "reward": 1.096920043534493}]}}
{"instance": {"id": "ec879159-899e-46fc-bf13-25502895c10b", "n_players": 15, "T": 3, "K": 6, "L": 11, "U": 12, "gamma": 0.9, "lambda_win": 0.6, "beta": 0.25, "churn_penalty": 0.01, "G": [44, 44, 44], "C": [1555664.1615168771, 1602334.0863623836, 1650404.1089532548], "R_base": [22040425.95542248, 22481234.474530928, 22930859.164021548], "rho": [620613.3038290484, 626819.436867339, 633087.6312360123], "Q_opp": [-0.18264947091217826, -0.5758194861855807, 0.4233456194081966], "w": [0.3408178477306703, -0.279581637401887, 0.6363073469409813, 0.381016536320879, 0.3763591261068046, 0.33759512632820093], "abilities": [[[1.947292257051827, -0.2688944119753459, -0.4267946820862582, 0.5223441437665753, -0.5509804796390063, 0.6067341171515335], [0.7137540538345007, 1.124389397899597, 0.9078714135749253, 0.05591531681967371, -0.771601778524023, 2.31581048593277], [-0.8317270186323535, -1.3511204069748888, -1.2979114828297793, -0.849722622112297, -0.9417611612072848, -2.261795134099501], [0.23453144938613957, -0.14575815368503844, 1.4389448906146487, -1.8147132207280545, 1.4519087032868163, 0.6015520697872891], [-0.1652176605482184, -0.6024879474311212, 0.13978571599670156, -0.5213338015505632, -0.11584957601520572, 0.09699001020183878], [-1.3783168593501764, -0.905076216263992, 1.2745934750875654, 0.18233052382001438, 2.1291049158264195, -0.1777934620047764], [-0.20593162138129784, 0.8663102000075636, 1.660097212361077, -1.3068425088712154, -0.3180616132318656, -0.9453031244322915], [0.5483010159528616, 1.7025332184188646, -0.6137995294476075, 0.8794811428113729, -0.7439435430706042, -0.5635372448995689], [0.875764626668414, 0.08009008684595993, -0.8686386662893244, 0.4438545039155904, 0.19729257559381166, 1.3174786782697703], [-0.8392262447420827, 0.8513869261579293, -1.2899333714454415, 1.72129046320569, -1.2663474205293497, -0.4227105014991061], [-0.10125655221801118, -2.3403525502642952, 0.08105952702406619, 0.5271681931466146, 1.3511834132184608, 0.25823667004124495], [0.9396824201093577, 0.3846520345361462, -0.022855707920000145, -0.1787930759804617, 0.08946913829121231, -0.5697021783636649], [1.0380405027629533, 0.7129067473859442, -1.5517076923050244, -0.4478838180769172, -1.3817140276306277, 0.15440954042482866], [-1.8279929792931031, -0.29386508954532237, -0.19820232435443214, 1.7974696967872206, 0.7002221723492669, 0.04521323710831785], [-0.9476973896008108, 0.18528616488799982, 0.7674912220188834, -1.0105649369532428, 0.17107868128198073, -0.45558316361868406]], [[1.5291344822935848, -0.6993504141377863, -0.7034364701970323, 0.20168621568568862, -0.026405358945178144, 0.23403921635823344], [-0.058266146925996354, 1.7048540887124983, 1.099069729893681, 0.5882423407148613, -0.7407318857012133, 2.5677066796954797], [-0.3403415705688266, -1.014016494711223, -1.6304292662889919, -0.8851318401194471, -0.4959634363636752, -1.9106347095223657], [0.16163095111249745, -0.0800857613773509, 1.1825752655425734, -2.0475860089073232, 1.9120915097030717, 0.8874465536893447], [0.3095058628552023, -0.8667059843705746, 0.6890024644323115, -0.7405099995891276, -0.5142453113142851, 0.18089407770452232], [-1.4656596461024105, -1.0922529264214316, 0.7362325672556079, 0.4571341927116708, 1.5772620120592569, -0.3572325841640945], [0.18119545278601543, 0.9526331518819803, 1.3599094587777172, -1.351928022581486, -0.35948955096426133, -0.0665609896999175], [-0.24308419152999913, 1.6232416631807585, -0.7512732222421195, 0.7438619876445083, -0.9799135434021968, -0.0015449441282358786], [1.0250520332730246, 0.12789987066439842, -0.5077835368252877, 0.7477857436980564, 0.8300422820875333, 1.4257984160377346], [-0.8217083999478783, 0.387335461580828, -1.1088771293520916, 1.5961683092503793, -1.3221878834266716, -0.5076037158931082], [0.5804806491312344, -1.8222466781356166, 0.6581539421321247, 0.4893561143304045, 1.4373338629898482, -0.09661443036538929], [0.35823557955917984, 0.5414384944669102, 0.3819232838014451, 0.07165803750914226, -0.2582322689764909, -0.7548076158583827], [1.7357670266262573, 0.7251761252814971, -1.8718584785778998, -0.5587905955955634, -1.179791650199049, -0.6172883744740171], [-2.0324901035565173, -0.8175802904325122, -0.022167532896015977, 1.483843230942225, 0.6675605455049539, -0.5779455257954922], [-0.9194519790053686, 0.32965969381762494, 0.4889589245439773, -0.7957897056939882, -0.5473293230516434, -0.40565205358431244]], [[1.576548524898192, -0.8292126077466805, -0.6739240478140835, 0.7402755380591978, -0.09235067276464423, 0.20269613930669464], [-0.195752684050502, 1.3118315567751377, 1.3978214480053546, 0.4729834970955402, -0.6930405859554908, 2.1587299289135498], [0.41894277525671336, -1.2877014057360532, -1.4931216686154014, -1.0156506442834556, -0.16567083556818196, -2.1246963498193328], [-0.08437742296115326, -0.3293178823034217, 1.0907327850410669, -1.6319289195087059, 1.477773792004854, 0.2664168843143593], [-0.32127013578551006, -0.8262008968059227, 0.5309208799199018, -0.644847895435601, 0.07430838578097201, 0.5014936637874406], [-1.1976913531929447, -0.9984161862294934, 1.0853315411025553, -0.24537331836392165, 1.388141058027971, -1.3821961681102188], [-0.1453609192648728, 1.138112206930137, 1.1416833548520977, -1.0354193927691941, 1.1709416449674344, -0.3778889697672255], [0.6750492515713754, 1.8548932076063376, -0.36833130629711286, 0.7799557728754752, -0.863988502799163, 0.12717600824198935], [0.6660608930517042, 0.5773792451562423, -0.3504913775084561, 0.5607272065748844, 0.5902631195319257, 1.5609509004318136], [-0.9231177213532775, 0.6704292002307138, -1.10564053122698, 1.6520435470699473, -1.5722161197159434, -0.26946857290036563], [0.17016240185115278, -1.6482987580391237, 0.601037102003122, -0.1312625877213126, 1.0177806023261353, 0.41292771099863435], [0.0520200177389669, 0.2523396771257058, 0.4318966325382541, 0.16602129467425625, -0.4150853677661079, -0.6512371857443844], [1.976956248082703, 0.4711310547630665, -2.085735981214856, -0.8994106405121061, -1.4570219648921043, 0.07484509702447592], [-2.195385296910052, -0.7078348928195245, -0.1720916896988254, 1.9799285602225174, 0.7682765539645642, -0.5311877939425873], [-0.4727845789324952, 0.3508664810928784, -0.030087141086635252, -0.7480420179775213, -1.228111107142219, 0.03143870726515725]]], "salaries": [[254747.7135979565, 260000.0, 30000.0, 178257.5277326963, 122468.18199795259, 115669.10295453535, 49905.43701107431, 115057.16378838447, 260000.0, 74982.89915719294, 150180.03833405406, 84958.26465341683, 124906.40089145, 90827.82133664348, 54500.26897553133], [131107.06131217294, 260000.0, 30000.0, 225756.52784706312, 133311.96404643916, 46217.72730161245, 147469.6572931738, 145377.33577028319, 260000.0, 37307.57834799562, 146467.5370203027, 67945.6334769367, 49910.18268945195, 30000.0, 48193.88867248809], [154742.42389059084, 260000.0, 30000.0, 157112.88446925321, 137922.12391263756, 30000.0, 131693.6551201043, 171104.8477081901, 260000.0, 64609.65742922464, 164179.91171858806, 107547.26536687289, 111825.36528491759, 54864.28220279745, 110622.71302071157]], "x_prev_mask": 32508}, "solution": {"id": "ec879159-899e-46fc-bf13-25502895c10b", "objective": 3.2759692467399564, "masks": [27899, 11771, 11771], "rosters": [[0, 1, 3, 4, 5, 6, 7, 10, 11, 13, 14], [0, 1, 3, 4, 5, 6, 7, 8, 10, 11, 13], [0, 1, 3, 4, 5, 6, 7, 8, 10, 11, 13]], "per_season": [{"Q": 4.541608506057965, "p": 0.7651391486773808, "W": 33.666122541804754, "cost": 1476571.520382245, "revenue": 42934069.49320553, "profit": 41457497.972823285, "reward": 1.1614736300625534}, {"Q": 5.60174841348706, "p": 0.8241022823551928, "W": 36.260500423628486, "cost": 1593653.4440679841, "revenue": 45210020.93059764, "profit": 43616367.486529656, "reward": 1.2505107013293464}, {"Q": 5.538597944014673, "p": 0.7822476688441438, "W": 34.418897429142326, "cost": 1629167.3943890347, "revenue": 44721037.40719254, "profit": 43091870.01280351, "reward": 1.2210320808407296}]}}
{"instance": {"id": "b88f1a3b-6759-4f8a-9d38-49f9fb8624d1", "n_players": 15, "T": 3, "K": 6, "L": 11, "U": 12, "gamma": 0.9, "lambda_win": 0.6, "beta": 0.25, "churn_penalty": 0.01, "G": [44, 44, 44], "C": [1484405.1885804548, 1528937.3442378684, 1574805.4645650045], "R_base": [19232067.17739685, 19616708.520944785, 20009042.69136368], "rho": [656738.6625122209, 663306.0491373431, 669939.1096287166], "Q_opp": [0.05582747465917109, 0.696264598723217, 0.37302054875286184], "w": [-0.38551120950487044, 0.3017642489983843, 0.09624830806871386, -0.8245209526392202, -0.12409335042178858, 0.23626626299513745], "abilities": [[[0.6247025795560479, 0.33567137705531813, -0.12617316868141912, 0.5367454719071386, 2.112885632994761, 2.457388164548626], [1.5784469758248243, -1.2323437060750595, -0.6198942635217556, -0.6227997731096425, 0.12073632188541489, 0.6808523701335106], [0.05245594179478481, 0.7712311223693118, 2.013284908960038, -0.7540690461304079, -1.3280995407395637, 0.3308243227842791], [1.149261997503875, -1.3891452143880973, -0.921612710368628, 0.3617197745461152, -0.24147264377082978, 0.4042728310805113], [-1.2112553832613437, 0.8931878510572302, 0.6692663730057895, 1.6087778682434057, -0.4225771265989519, 1.1984348270335219], [-0.18598015727240927, 2.0779103583112932, 0.17554527816545262, -0.6227997731096425, -1.1469950579114416, 0.047358986078508025], [-1.4258478724218184, -1.005852638511783, 0.36754792615891696, -1.0384858043420706, 0.3018408047135374, -1.0887976266288335], [-0.519790695966481, 0.8583430714321106, 0.25783212730550875, 0.6461365327577783, 0.6640497703697825, -0.8535328734924649], [-0.9966628941008692, 1.433281935246583, 0.9435558701393099, 0.44923262322662694, 0.48294528754165994, -0.5172764214487768], [-1.4496914823285378, -0.18700031732147437, -1.3604759057822604, -1.213511501703094, -0.6036816094270744, -1.1014215889922485], [1.3638544866643496, -0.2218450969465939, 0.6418374232924374, -0.7759472583005359, -0.06036816094270724, 0.4501781487656564], [1.3161672668509108, -0.012776419195876711, -0.866754810941924, 1.7400471412641731, -0.24147264377082978, 0.6280612547955937], [0.05245594179478481, -0.6051376728229102, -1.6621943526291325, 0.7992840179486731, -0.9658905750833191, -1.0337112454066595], [-0.519790695966481, -0.9013182996364244, -0.8118969115152198, 0.580501896247392, -0.7847860922551969, -0.3313598848239392], [0.17167399132838185, -0.8142063505736256, 1.3001322164128857, -1.6948321694459079, 2.112885632994761, -1.2712712644272854]], [[-1.3881266340568428, -0.3920335408472541, -0.14358716409292135, 0.09436552178578808, -0.8073937693501524, -0.9743848730479828], [-1.8479968073026678, -0.05014382499208933, 1.9554624804857963, -1.3745317512948754, -0.3748613929125707, -1.4585701838211034], [0.5279990878007624, 0.9926198083661579, 1.0428322002341797, -1.454653420735639, -1.0957486869752067, 1.3974379818477047], [0.3236123441359524, 0.4968797203761697, -1.001459627529442, -0.46648616429955597, -0.8073937693501524, 0.32515022992327014], [-0.9921273182062705, -1.5202696031692922, -0.7824283602690525, 0.2011944143734728, 0.49020335996259257, -1.1491026856618682], [0.5279990878007624, 0.7020135498892696, 1.6086629739901819, 0.3614377532549973, 0.20184844233753793, -0.26866194366640606], [1.307223548022856, -0.9048681146299987, -0.4356288537734383, -0.38636449485879243, 0.7785582775876466, 0.9703499954582068], [1.2305785191485517, -1.0587184867648203, -0.7094179378489232, -0.43977894115263744, 0.20184844233753793, 1.0068922830637252], [-0.3023220583375326, 0.6678245783037513, -1.0927226555546021, 0.17448719122655162, 1.4994455716502826, 1.287811119031149], [0.38748320153120597, 0.8558639220240927, 0.7325379049486305, -0.813680065209531, 1.0669131952127013, 1.151919486998127], [1.0772884613999432, 0.05242308976445968, -0.38087103695834124, 1.0291183319280262, -1.5282810634127884, -0.5838391742640034], [-0.5450313164394962, -1.041624000972062, 0.9698217778140504, 0.0676582986388643, -0.2306839341000434, -0.6249492478202118], [-0.4428379446070905, 2.411462129165085, -1.0927226555546021, 2.8719167290655885, 2.076155406900392, -1.1296895953714365], [-1.1326432044758283, -0.7681122282879319, -1.0197122331344726, -0.2795356022711081, -0.3748613929125707, -0.8476288129163404], [1.2689010335857038, -0.4433169982255286, 0.3492331872429518, 0.4148521995488423, -1.0957486869752067, 0.8972654202471697]], [[0.7331775313001364, 0.024688221885178847, 0.4626550500378828, 0.7190673905937762, 1.4794216563954659, 1.442175856088732], [1.583074205913896, 1.7281755319625178, 0.10162365260947712, 0.9992235167991435, -1.1702887729695466, 0.9875109063195424], [1.5150824719447953, -0.5431408814739367, 0.10162365260947712, 0.4669268770089461, -1.1702887729695466, 0.618971916198261], [-0.16771294379044693, -0.9134642097516166, -1.1954150714851661, -0.1494166006428615, 0.3201733435482727, -0.9092631352285748], [1.2601134695606673, 0.17281755319625192, -0.4332376769140871, 1.1112859672812871, -1.6671094784754865, -0.6799277310498426], [-0.9326199509428306, 0.2962586626221462, 0.11499518584756586, 0.6630361653527027, -0.6734680674636067, -1.165638084878162], [-2.5304256992166967, 0.691270212785007, -0.927984406723384, 0.10272391294196592, -0.011040460122353737, -1.3839573779391385], [-0.13371707680589653, 1.0615935410626869, -0.6872968084377814, 0.5229581022500164, 0.48578024538358616, 1.7586386845624413], [-0.11671914331362135, 1.3084757599144774, 2.3614127698465355, -1.410119168567013, 1.6450285582307793, 1.509273987442335], [-0.2017088107749973, 0.49376443770357625, -1.2756442709137006, 1.979769958517928, -0.3422542637929802, 0.31552812813644493], [-0.6776509485587027, -1.1109699848330474, -0.1925500786284834, -0.9618693666384257, 0.48578024538358616, -0.8291459634630789], [-0.048727409344520585, 0.46907621581839737, 1.813179907084882, -1.1859942676027193, 0.48578024538358616, -0.6278515694022702], [0.2062415930396073, -1.6047344225366236, 0.7969433809901103, -0.7937756909152054, 0.3201733435482727, -0.4025220238118128], [-0.43967987966685, -1.7528637538476963, -0.7407829413901366, -0.6536976278125222, -1.3358956748048598, -0.521696316812988], [-0.048727409344520585, -0.320946884507325, -0.2995223445331963, -1.410119168567013, 1.1482078527248392, -0.11209727616188984]]], "salaries": [[237711.74379144155, 195747.33120211042, 189671.53050362165, 193813.16095760482, 237711.74379144155, 103525.43385210693, 103294.00126180041, 126978.82017139222, 111079.47454905692, 53556.77033468138, 218199.5920876703, 208560.14572798653, 110839.63226096323, 157018.25322832845, 109192.67648717934], [72511.30058382491, 38888.3426435795, 239135.42696108055, 161199.007774256, 87087.80452416182, 158945.81936915655, 251797.85592678687, 222747.85610386566, 250731.8351458256, 239592.97189931525, 105620.79551734812, 75775.13646656131, 73645.6815816741, 64822.863014363116, 195837.88042899978], [260000.0, 260000.0, 206279.10239923844, 90789.2639255357, 120611.3808712778, 83294.95248026593, 46012.42273361589, 260000.0, 260000.0, 177683.25636335337, 106081.03186173046, 105541.10244770472, 166078.97254445308, 101363.40701562566, 145144.69219902033]], "x_prev_mask": 31726}, "solution": {"id": "b88f1a3b-6759-4f8a-9d38-49f9fb8624d1", "objective": 3.0667637140114055, "masks": [30694, 12095, 32236], "rosters": [[1, 2, 5, 6, 7, 8, 9, 10, 12, 13, 14], [0, 1, 2, 3, 4, 5, 8, 9, 10, 11, 13], [2, 3, 5, 6, 7, 8, 10, 11, 12, 13, 14]], "per_season": [{"Q": 3.4405597317219723, "p": 0.6997658406307435, "W": 30.789696987752716, "cost": 1479103.5159389111, "revenue": 39452851.59629013, "profit": 37973748.08035122, "reward": 1.1796601582568014}, {"Q": 3.3371200751156023, "p": 0.6593084295411193, "W": 29.00957089980925, "cost": 1494311.303899473, "revenue": 38858932.3816669, "profit": 37364621.077767424, "reward": 1.0774788491907203}, {"Q": 3.9474939760136913, "p": 0.7096363096195915, "W": 31.223997623262022, "cost": 1570584.9476071903, "revenue": 40927219.858141005, "profit": 39356634.910533816, "reward": 1.1325587549172296}]}}
